tree
version=v4
num_class=4
num_tree_per_iteration=4
label_index=0
max_feature_idx=65
objective=multiclass num_class:4
feature_names=speed_kph_mean speed_kph_std speed_kph_min speed_kph_max motor_rpm_mean motor_rpm_std motor_rpm_min motor_rpm_max motor_temp_c_mean motor_temp_c_std motor_temp_c_min motor_temp_c_max inverter_temp_c_mean inverter_temp_c_std inverter_temp_c_min inverter_temp_c_max battery_soc_pct_mean battery_soc_pct_std battery_soc_pct_min battery_soc_pct_max battery_voltage_v_mean battery_voltage_v_std battery_voltage_v_min battery_voltage_v_max battery_current_a_mean battery_current_a_std battery_current_a_min battery_current_a_max battery_temp_c_mean battery_temp_c_std battery_temp_c_min battery_temp_c_max battery_cell_delta_v_mean battery_cell_delta_v_std battery_cell_delta_v_min battery_cell_delta_v_max hvac_power_kw_mean hvac_power_kw_std hvac_power_kw_min hvac_power_kw_max throttle_pct_mean throttle_pct_std throttle_pct_min throttle_pct_max brake_pct_mean brake_pct_std brake_pct_min brake_pct_max regen_pct_mean regen_pct_std regen_pct_min regen_pct_max accel_x_mean accel_x_std accel_x_min accel_x_max accel_y_mean accel_y_std accel_y_min accel_y_max accel_z_mean accel_z_std accel_z_min accel_z_max power_kw_mean accel_magnitude_mean
feature_infos=[-0.23797189243297265:6.0592813466231634] [-0.21423965923777158:13.14986667638243] [-0.22128650092773886:6.4290874636763293] [-0.24594551523958738:6.4705914770859279] [-0.23797190231327464:6.0593152507781856] [-0.21423972000515079:13.149766366535438] [-0.2212864916680144:6.4297013211388077] [-0.24594549208116911:6.4704164278346985] [-0.71642209749018559:2.9159154100559581] [-0.62108467258814204:4.12833740336582] [-0.68998806999804907:2.8420298147662213] [-0.87551075496176978:3.3392257691492553] [-0.99837272119485498:4.8629879878998272] [-0.10148258682046951:35.41808476568287] [-0.99690838987950858:4.8832826068691411] [-0.99850096791831389:4.840124454847162] [-2.3287357415725429:1.8433858025863383] [-0.045401334677661741:54.215213154509932] [-2.3284745845859827:1.8436904378382934] [-2.3287678357040664:1.8427646418993795] [-3.2363134752984122:1.2394451087467686] [-0.054420367657953155:50.599337438152972] [-3.2325430721785815:1.2395830317949306] [-3.2389519262187951:1.2388550424046039] [-3.0776863726934063:0.46757550474748633] [-0.43657143175133384:4.1486042139021819] [-2.7463222930361813:0.45308676235342443] [-3.2670634643781908:3.7795868204911027] [-0.37320784165481369:10.787934161952267] [-0.2174770068012517:24.657617821920947] [-0.39454827678761978:10.462657854382458] [-0.3552800325025382:10.662507524511344] [-0.77696252599648352:7.2484791858215907] [-0.060785263977338605:36.540479360439505] [-0.77698806431215506:7.2430374809384528] [-0.77575879218496302:7.2563648076841556] [-0.99745570115388693:1.221727525556517] [-0.99750409936630757:1.1935605294279086] [-0.98780376121510172:1.3535875948890432] [-0.9998277602663953:1.0206767333944715] [-0.23801825933441212:6.3352905170517326] [-0.25124662271732007:6.2745780755514486] none [-0.25027674819969192:6.2729260277288637] [-0.2173124917961852:8.2815635450090852] [-0.23635396352998628:6.3832761456879039] none [-0.2437873935885119:4.650382189625053] [-0.21662607932540304:8.1868142804878961] [-0.23525095790249029:6.3734556229330064] none [-0.24052310229319182:5.5295473302079747] [-10.185067533928445:11.900940913990429] [-0.46584787783970821:12.115216510128681] [-13.680376679216065:0.48759196511492436] [-0.48003591540817797:13.110683529305625] [-9.0061437640583915:8.0220964560243875] [-0.55380973772063546:11.190223492779278] [-12.974972534868764:0.60967233011416766] [-0.61363396481112864:15.540449134507474] [-0.67417162604876246:4.7194219433965472] [-0.25519025858259758:61.806454532657931] [-0.87064307091574999:4.7215057545320889] [-0.67885821084494291:4.6951754763418396] [-3.1112609849353667:0.46855614788576633] [-0.67416937298266189:4.7193569054551832]
tree_sizes=244 3457 3526 3457 226 3551 3555 3549 226 3537 3574 3538 227 3554 3575 3550 227 3570 3584 3548 227 3566 3582 3555 227 3582 3589 3561 227 3564 3584 3571 227 3569 3586 3567 227 3581 3593 3568 227 3565 3579 3574 227 3570 3588 3582 227 3571 3589 3569 227 3585 3583 3582 227 3554 3580 3575 227 3575 3584 3575 227 3566 3585 3552 227 3578 3584 3572 227 3575 3588 3578 227 3579 3585 3577 227 3575 3583 3575 227 3573 3579 3558 227 3570 3580 3575 227 3576 3578 3573 227 3573 3585 3573 228 3565 3577 3573

Tree=0
num_leaves=1
num_cat=0
split_feature=
split_gain=
threshold=
decision_type=
left_child=
right_child=
leaf_value=-34.538776391283193
leaf_weight=
leaf_count=51681
internal_value=
internal_weight=
internal_count=
is_linear=0
shrinkage=1


Tree=1
num_leaves=32
num_cat=0
split_feature=34 62 14 8 16 16 63 16 64 64 33 8 19 62 63 0 28 11 12 28 60 24 1 28 61 55 62 63 1 30 8
split_gain=17897.5 4914.76 2692.03 2118.79 4567.88 2034.12 1135.12 1013.62 338.645 1029.54 312.232 44.8342 43.2486 50.0501 33.3905 17.5574 179.149 11.851 26.7287 10.756 5.04268 3.64591 1.61701 6.80864 1.33686 4.51869 0.655414 0.626707 0.33226 3.23962 0.232782
threshold=-0.74695659020173499 1.0707134202008615 0.91815500835177877 -0.70358610538742361 0.4772304668529474 1.3222173293828714 2.0205994250115138 -0.16405707757072893 0.41013427321961488 0.41014015922278507 -0.060721271273714343 -0.51254005242354717 0.47459254465942974 -0.081886479309984619 1.0659319977992578 4.4760147892221314 2.8638644107503715 -0.65041418593871703 -0.74090662242958605 -0.095824545927722285 1.298217563222589 0.36624141717946029 8.6947743565541487 -0.34317317412290332 2.961476451301237 0.61846870680982335 1.0950569442219866 1.9936283993234183 5.1568446190911024 1.9034887228903272 0.22476778278113049
decision_type=2 2 2 2 2 2 2 2 2 2 2 2 2 2 2 2 2 2 2 2 2 2 2 2 2 2 2 2 2 2 2
left_child=1 2 7 4 12 14 27 -1 15 19 20 -12 -2 -14 -3 22 -17 18 -11 -10 -9 -4 24 -24 28 -26 -16 -7 -5 -30 -28
right_child=3 5 21 8 -6 6 -8 10 9 17 11 -13 13 -15 26 16 -18 -19 -20 -21 -22 -23 23 -25 25 -27 30 -29 29 -31 -32
leaf_value=-1.6581504303442094 -1.6580666978488703 -1.5173291196829333 -1.6112099934571174 -1.6581361575283231 -1.4234482459087494 -1.4234482459087494 -1.6581504303442094 -1.4236686235467169 -1.5055940104611603 -1.5407993381264795 -1.6581504303442094 -1.4793297183933827 -1.434116527019452 -1.6581504303442094 -1.6413859885988196 -1.6581504303442094 -1.4234482459087494 -1.6581504303442094 -1.6581504303442094 -1.4234482459087494 -1.474470459916458 -1.6581504303442094 -1.6581504303442094 -1.5877397750135713 -1.5994748842353443 -1.6581504303442094 -1.6581504303442094 -1.4396346034560223 -1.6581504303442094 -1.6134452523565028 -1.6464153211224364
leaf_weight=48.572194576263428 597.13974297046661 4.2607188224792472 4.2607188224792472 7006.3260316848755 322.32337892055511 186.61948442459106 70.727932453155518 1588.1829410791397 4.2607188224792472 7.2432219982147243 16.190731525421146 4.4737547636032096 4.6867907047271729 5.3258985280990583 5.9650063514709464 89.049023389816284 8.9475095272064191 197.05824553966522 14.699479937553404 61.567386984825134 4.8998266458511344 142.09497272968292 17.681983113288883 4.2607188224792472 4.2607188224792507 14.273408055305479 516.61215722560883 6.1780422925949088 43.033260107040405 4.4737547636032096 4.2607188224792472
leaf_count=228 2803 20 20 32888 1513 876 332 7455 20 34 76 21 22 25 28 418 42 925 69 289 23 667 83 20 20 67 2425 29 202 21 20
internal_value=-1.6113 -1.49674 -1.4512 -1.64677 -1.57558 -1.60039 -1.48682 -1.4331 -1.65562 -1.60215 -1.42633 -1.61944 -1.65634 -1.55328 -1.65674 -1.65774 -1.63672 -1.65427 -1.61941 -1.42877 -1.42382 -1.65678 -1.65803 -1.64448 -1.65807 -1.64466 -1.65787 -1.42397 -1.65811 -1.65394 -1.65805
internal_weight=11009.9 2603.3 1808.68 8406.61 929.476 794.624 263.525 1662.32 7477.14 284.829 1613.75 20.6645 607.152 10.0127 531.099 7192.31 97.9965 219.001 21.9427 65.8281 1593.08 146.356 7094.31 21.9427 7072.37 18.5341 526.838 192.798 7053.83 47.507 520.873
internal_count=51681 12220 8490 39461 4363 3730 1237 7803 35098 1337 7575 97 2850 47 2493 33761 460 1028 103 309 7478 687 33301 103 33198 87 2473 905 33111 223 2445
is_linear=0
shrinkage=1


Tree=2
num_leaves=32
num_cat=0
split_feature=34 63 18 33 17 17 9 14 63 18 29 21 12 16 60 8 62 21 33 8 9 26 32 12 64 8 16 63 8 62 32
split_gain=15989.7 6914.21 1921.79 1286.67 1050.82 2982.73 1261.41 1126.57 873.09 784.24 591.819 415.316 483.632 229.332 208.652 390.145 112.17 103.252 202.637 93.525 63.3013 59.7565 269.7 46.5416 199.539 36.4909 175.54 30.7988 87.0942 17.9724 15.9758
threshold=-0.63380118354610582 1.0252392426664214 1.3252289466198441 -0.060721271273714343 -0.017499808850970383 -0.017882025856359122 -0.61038935709515119 2.3787342089747523 2.0205994250115138 0.40398090310680196 -0.19392572610595585 0.055176292531510289 1.9161715551554295 -1.016048936800797 0.8702703197283238 -0.27170023160276358 -0.67510487137302622 -0.021676960815769589 -0.044406655344599207 -0.078769225402287341 -0.14535228277881163 -2.4442858456956 -0.64232218465495716 1.6376677374701407 0.40885589860553168 2.6953968311728982 -1.1669585876453172 1.0659319977992578 -0.25844417504608785 0.75323123895758448 -0.45630552836369037
decision_type=2 2 2 2 2 2 2 2 2 2 2 2 2 2 2 2 2 2 2 2 2 2 2 2 2 2 2 2 2 2 2
left_child=1 3 27 14 5 6 10 17 -4 -5 -2 16 -13 -7 21 -16 -8 18 -6 -9 -20 22 -1 -19 -25 -18 -27 28 -3 -29 -15
right_child=4 2 8 9 7 13 11 19 -10 -11 -12 12 -14 30 15 -17 25 23 20 -21 -22 -23 -24 24 -26 26 -28 29 -30 -31 -32
leaf_value=-0.4735881343593249 -0.2929447354110718 -0.29214187586019064 -0.47321593690599328 -0.47092763203529064 -0.29214187586019064 -0.47261111604432948 -0.4735881343593249 -0.29214187586019064 -0.29537237304415148 -0.29214187586019064 -0.4735881343593249 -0.29214187586019064 -0.47093928387028638 -0.38718515412164189 -0.29214187586019064 -0.4735881343593249 -0.29336398811674835 -0.29227813287911836 -0.4735881343593249 -0.47306823103984308 -0.29214187586019064 -0.47212286490462274 -0.29214187586019064 -0.29606503820611785 -0.4735881343593249 -0.29214187586019064 -0.45423386678608385 -0.38286500510975774 -0.4735881343593249 -0.29233434073263737 -0.29214187586019064
leaf_weight=101.95856422185898 62.277393281459808 24.249604463577271 268.67459490895271 93.967217296361923 64.206339091062546 358.23279321193695 8.8180379867553693 7.7157832384109488 92.864962548017502 176.63632342219353 166.71603068709373 75.78001394867897 75.504450261592865 5.7868374288082149 47.672517865896225 78.260087132453918 2004.7258235514164 6238.2107482552528 28.383059769868851 96.171726793050766 5.7868374288082114 2832.2435758709908 25.627422899007797 101.95856422185898 18.738330721855164 87.07812511920929 20.667276531457901 5.511273741722106 9.0936016738414747 1039.1506640017033 18.738330721855164
leaf_count=370 226 88 975 341 233 1300 32 28 337 641 605 275 274 21 173 284 7275 22638 103 349 21 10278 93 370 68 316 75 20 33 3771 68
internal_value=-0.345097 -0.419448 -0.327778 -0.458766 -0.307345 -0.332498 -0.312609 -0.296287 -0.427535 -0.354225 -0.42446 -0.301338 -0.381378 -0.462485 -0.467933 -0.404901 -0.29563 -0.29366 -0.344492 -0.459631 -0.442859 -0.470615 -0.437142 -0.292873 -0.323626 -0.294887 -0.323234 -0.294322 -0.341627 -0.292812 -0.314568
internal_weight=14241.4 4795.91 1439.54 3356.37 9445.5 2884.33 2501.57 6561.17 361.54 270.604 228.993 2272.57 151.284 382.758 3085.76 125.933 2121.29 6457.28 98.3762 103.888 34.1699 2959.83 127.586 6358.91 120.697 2112.47 107.745 1078.01 33.3432 1044.66 24.5252
internal_count=51681 17404 5224 12180 34277 10467 9078 23810 1312 982 831 8247 549 1389 11198 457 7698 23433 357 377 124 10741 463 23076 438 7666 391 3912 121 3791 89
is_linear=0
shrinkage=1


Tree=3
num_leaves=32
num_cat=0
split_feature=12 64 26 19 22 62 16 20 32 62 15 58 34 14 10 8 29 57 60 26 1 36 37 3 43 1 1 52 0 0 55
split_gain=4295.35 3638.48 4323.71 2518.43 12641.9 2362.06 3016.16 1063.2 2093.38 1050.86 109.817 263.393 95.7142 34.8502 199.474 819.095 42.6191 3.75988 0.863697 3.10474 0.434675 0.36023 0.356074 0.198786 0.2396 3.63798e-12 1.81899e-12 9.09495e-13 4.54747e-13 4.54747e-13 2.27374e-13
threshold=2.3392080917673383 0.41023085999654313 0.45284271949399141 -0.98333669378497368 -0.46848553057375686 0.82396555192943954 -1.223937026903817 1.2347277229904805 -0.52799800868982449 2.6961643280850107 2.2267727898036971 -1.0000000180025095e-35 -0.23431691384329026 0.84283289619467971 -0.67805694351224266 -0.70358610538742361 -0.045534832922547695 -0.12992638898142927 0.58397147580941688 0.44391384567691705 1.8230025317308769 0.90472281160213053 1.0513025774226086 5.8983161943063758 4.921691167000807 3.2904647320721345 2.139776518284576 -0.3074955811267715 5.4193651560874647 2.7959922508949924 -1.0000000180025095e-35
decision_type=2 2 2 2 2 2 2 2 2 2 2 2 2 2 2 2 2 2 2 2 2 2 2 2 2 2 2 2 2 2 2
left_child=1 3 23 4 12 6 -2 10 20 25 13 -12 -1 28 15 -15 -16 27 26 -20 -9 -7 -11 -3 -25 -6 -8 -4 -5 -10 -17
right_child=5 2 17 7 9 21 18 8 29 22 11 -13 -14 14 16 30 -18 -19 19 -21 -22 -23 -24 24 -26 -27 -28 -29 -30 -31 -32
leaf_value=-2.1049297377964167 -2.424892377770643 -2.424892377770643 -1.976944681806726 -2.424892377770643 -1.976944681806726 -2.4062278904388128 -1.976944681806726 -2.424892377770643 -1.976944681806726 -2.424892377770643 -2.424892377770643 -1.976944681806726 -2.424892377770643 -2.424892377770643 -2.424892377770643 -1.976944681806726 -2.2457132993850761 -2.0409372098015712 -2.0441368362013135 -1.976944681806726 -2.4024949929724468 -2.424892377770643 -2.4035615351056943 -2.424892377770643 -2.4024949929724468 -1.976944681806726 -1.976944681806726 -1.976944681806726 -2.424892377770643 -1.976944681806726 -1.976944681806726
leaf_weight=2.3440236300230017 51.345279514789581 99.788434535264969 6.8088305443525305 3659.0208864659071 207.61352151632309 2.6788841485977164 129.03291982412338 73.111213222146034 35.048734277486801 11.83173832297325 10.938776940107344 4.6880472600460044 817.17128549516201 45.317790180444717 371.80679579079151 9.0412340015172941 3.3486051857471457 2.3440236300230017 2.2324034571647626 7.4785515815019608 2.2324034571647635 73.892554432153702 2.3440236300230017 2.5672639757394782 2.2324034571647644 8.0366524457931501 3.9067060500383368 103.80676075816154 7.4785515815019599 5.022907778620719 4.1299463957548133
leaf_count=21 460 894 61 32781 1860 24 1156 655 314 106 98 42 7321 406 3331 81 30 21 20 67 20 662 21 23 20 72 35 930 67 45 37
internal_value=-2.38358 -2.39315 -2.19276 -2.40141 -2.33207 -2.18909 -2.09628 -2.41861 -2.26893 -2.00436 -2.4228 -2.29051 -2.42398 -2.42331 -2.4099 -2.32402 -2.42329 -1.97827 -1.978 -1.99239 -2.42423 -2.42424 -2.42137 -2.42441 -2.41447 -1.97694 -1.97694 -1.97694 -2.42489 -1.97694 -1.97694
internal_weight=5768.64 5498.07 217.548 5280.53 1049.34 270.567 193.996 4231.19 115.415 229.826 4115.77 15.6268 819.515 4100.14 433.644 58.489 375.155 112.96 142.651 9.71096 75.3436 76.5714 14.1758 104.588 4.79967 215.65 132.94 110.616 3666.5 40.0716 13.1712
internal_count=51681 49257 1949 47308 9401 2424 1738 37907 1034 2059 36873 140 7342 36733 3885 524 3361 1012 1278 87 675 686 127 937 43 1932 1191 991 32848 359 118
is_linear=0
shrinkage=1


Tree=4
num_leaves=1
num_cat=0
split_feature=
split_gain=
threshold=
decision_type=
left_child=
right_child=
leaf_value=0
leaf_weight=
leaf_count=51681
internal_value=
internal_weight=
internal_count=
is_linear=0
shrinkage=1


Tree=5
num_leaves=32
num_cat=0
split_feature=34 62 8 16 14 16 63 16 64 64 33 18 19 62 63 0 28 11 12 30 14 60 1 33 61 59 62 63 1 30 18
split_gain=14550.8 3244.28 1919.11 3433.87 1889.79 1638.37 779.973 708.737 318.109 796.036 195.121 47.6332 37.786 38.3499 29.5048 17.2009 142.264 10.9435 22.1741 6.59507 3.82767 2.55725 1.61182 6.87987 1.36292 4.64286 0.673714 0.405368 0.336932 3.05216 0.283839
threshold=-0.74695659020173499 1.0707134202008615 -0.70358610538742361 0.4772304668529474 0.91815500835177877 1.3222173293828714 2.0205994250115138 -0.16405707757072893 0.41013427321961488 0.41014015922278507 -0.060721271273714343 0.49437168609245796 0.47459254465942974 -0.081886479309984619 1.0659319977992578 4.4760147892221314 2.8638644107503715 -0.65041418593871703 -0.74090662242958605 -0.16542541140733039 0.95034654010183217 1.298217563222589 8.6947743565541487 -0.028028047099138618 2.961476451301237 0.89526439123639312 1.0950569442219866 1.9936283993234183 5.1568446190911024 1.9034887228903272 -0.83186759372001251
decision_type=2 2 2 2 2 2 2 2 2 2 2 2 2 2 2 2 2 2 2 2 2 2 2 2 2 2 2 2 2 2 2
left_child=1 4 3 12 7 14 27 -1 15 19 21 -12 30 -14 -3 22 -17 18 -11 -10 -6 -9 24 -24 28 -26 -16 -7 -4 -30 -2
right_child=2 5 8 -5 20 6 -8 10 9 17 11 -13 13 -15 26 16 -18 -19 -20 -21 -22 -23 23 -25 25 -27 -28 -29 29 -31 -32
leaf_value=-0.046872001572541205 -0.032281376659348091 0.080924503910865364 -0.046115871975837462 0.14836827588524854 0.0026325022703300115 0.1482896466162141 -0.046077770582796801 0.14819493917201873 0.086026757894292608 0.057319055358807693 0.14387544955334394 -0.046146153955867575 0.14050994301167033 -0.047090185273166413 -0.028674834731947818 -0.046174811286673702 0.14822611918391834 -0.046262631938882921 -0.046502729376850377 0.14868623789460675 -0.046740293616894357 0.11409868293095862 -0.046198715831972388 0.025866625450226569 0.014798841551619743 -0.046095709511003606 -0.045954352067899343 0.13627225857260569 -0.046104923317750603 -0.0028041136153599596 -0.046307053396153181
leaf_weight=48.630657613277435 3.6300737857818595 4.6390424370765677 6666.1524851173162 381.00803083181381 4.0378410071134558 220.67414975166321 67.065550804138184 1877.2296352982521 4.4559927284717551 8.0181623697280902 4.1394499689340618 16.223006367683411 5.5101815760135651 5.3879577219486219 5.7062283158302298 84.96635901927948 10.583270430564879 189.10745596885681 14.341940611600874 72.922504246234894 141.14647117257118 5.5153536200523368 17.104740321636204 4.1070308536291114 4.0526893138885525 13.751201212406157 493.1044115871191 7.2477567940950385 40.872092500329018 4.5196629613637915 571.24952705204487
leaf_count=228 18 20 32888 1513 19 876 332 7455 19 34 17 80 22 25 28 418 42 925 69 290 668 23 84 19 19 68 2445 29 202 21 2785
internal_value=-0.000199717 0.0960084 -0.0345821 0.0315271 0.128668 0.0102358 0.103805 0.141614 -0.0435399 0.00785869 0.14643 -0.00751698 -0.04447 0.0477619 -0.0445894 -0.0457084 -0.0246426 -0.0423514 -0.00927303 0.145078 -0.0453671 0.148095 -0.0460066 -0.0322454 -0.04605 -0.0322343 -0.0457567 0.147908 -0.0460866 -0.0417935 -0.0462185
internal_weight=10997.1 2895.36 8101.74 966.786 2096.92 798.437 294.987 1951.74 7134.96 288.846 1903.11 20.3625 585.778 10.8981 503.45 6846.11 95.5496 211.468 22.3601 77.3785 145.184 1882.74 6750.56 21.2118 6729.35 17.8039 498.811 227.922 6711.54 45.3918 574.88
internal_count=51681 12220 39461 4363 8490 3730 1237 7803 35098 1337 7575 97 2850 47 2493 33761 460 1028 103 309 687 7478 33301 103 33198 87 2473 905 33111 223 2803
is_linear=0
shrinkage=0.05


Tree=6
num_leaves=32
num_cat=0
split_feature=34 63 18 17 11 17 14 33 63 18 60 21 12 16 60 8 21 33 8 9 12 64 26 32 8 17 12 8 16 63 8
split_gain=13401.8 5254.02 1639.02 975.581 2482.43 989.522 964.05 925.808 669.336 639.859 398.671 377.673 386.105 341.177 143.569 304.797 96.2579 169.268 70.417 48.5164 44.157 165.168 40.0808 205.909 35.3342 34.8938 53.255 35.776 147.814 28.7912 72.699
threshold=-0.63380118354610582 1.0252392426664214 1.3252289466198441 -0.017499808850970383 -0.57119463528179171 -0.017515098886568704 2.3787342089747523 -0.060721271273714343 2.0205994250115138 0.40398090310680196 -0.61603696129681407 0.055176292531510289 1.9161715551554295 -1.3160306995494044 0.8702703197283238 -0.27170023160276358 -0.021676960815769589 -0.044406655344599207 -0.078769225402287341 -0.14535228277881163 1.6376677374701407 0.40885589860553168 -2.4442858456956 -0.64232218465495716 -0.013357624609746105 -0.017820863825136701 1.5085332074648898 2.6953968311728982 -1.1669585876453172 1.0659319977992578 -0.25844417504608785
decision_type=2 2 2 2 2 2 2 2 2 2 2 2 2 2 2 2 2 2 2 2 2 2 2 2 2 2 2 2 2 2 2
left_child=1 7 29 4 10 11 16 14 -4 -9 13 25 -13 -2 22 -16 17 -5 -8 -19 -18 -22 23 -1 -7 27 -27 -6 -29 30 -3
right_child=3 2 8 6 5 24 18 9 -10 -11 -12 12 -14 -15 15 -17 20 19 -20 -21 21 -23 -24 -25 -26 26 -28 28 -30 -31 -32
leaf_value=-0.1084154755647937 0.047890646237285665 0.051648081134570756 -0.10812342301051392 0.05151228593769458 0.050802038312976389 -0.10854382840365805 0.051511415974044641 -0.1067140633090099 0.04823570576795478 0.051542222311077884 0.051548655009149659 0.051514661266480515 -0.10642682291151051 -0.10833095598240539 0.051511343096555043 -0.1084154755647937 0.051374134334913391 -0.10865463255258452 -0.10813358661419187 0.051649815987974884 0.047550411381283492 -0.10848684769654338 -0.10729401140452782 0.051511415974044641 0.018309678997794048 0.051606127378320724 -0.11055648525449727 0.051511415974044641 -0.093286702951541123 0.050831274139143623 -0.11019449141176377
leaf_weight=111.61695718765259 37.796729534864426 23.326661020517349 294.06265193223953 61.519553422927856 1893.9667238891125 117.88608410954475 7.3927000761032096 102.53241193294525 89.207808077335358 169.38820761442184 49.958799362182617 72.87807360291481 82.496659517288208 463.89925789833069 45.676220864057541 85.673556327819824 5977.8791603147984 31.03898549079895 105.19302439689636 5.566410392522811 98.03182128071785 20.507023334503174 3097.5238345265388 24.554325252771378 5.7575722932815543 12.178732901811602 8.6651153266429883 83.431900858879089 22.345546811819077 1001.4521931707859 9.8767204284667951
leaf_count=370 142 88 975 233 7167 391 28 341 337 641 189 276 274 1541 173 284 22638 103 349 21 370 68 10278 93 21 46 29 316 75 3791 33
internal_value=0.000306181 -0.0650457 0.0165943 0.0363766 0.0121055 0.034956 0.0473488 -0.0968743 -0.0717302 -0.00813107 -0.0831484 0.0427744 -0.0323448 -0.0965615 -0.104045 -0.0528017 0.0499842 0.000855922 -0.0976508 -0.0842779 0.0507749 0.0205562 -0.106127 -0.0795776 -0.102637 0.0485507 -0.0158074 0.0492216 0.0209227 0.0493126 0.00350618
internal_weight=14213.3 5054.89 1417.93 9158.39 2851.26 2299.61 6307.13 3636.97 383.27 271.921 551.655 2175.96 155.375 501.696 3365.04 131.35 6194.54 98.1249 112.586 36.6054 6096.42 118.539 3233.7 136.171 123.644 2020.59 20.8438 1999.74 105.777 1034.66 33.2034
internal_count=51681 17404 5224 34277 10467 8595 23810 12180 1312 982 1872 8183 550 1683 11198 457 23433 357 377 124 23076 438 10741 463 412 7633 75 7558 391 3912 121
is_linear=0
shrinkage=0.05


Tree=7
num_leaves=32
num_cat=0
split_feature=13 11 32 12 17 22 32 13 8 16 27 29 14 12 15 26 49 30 12 17 3 61 10 15 60 54 64 56 36 25 9
split_gain=3765.36 5894.97 5653.17 1481.81 1907.49 1099.59 991.676 806.433 1501.49 237.024 190.009 159.885 120.916 82.72 20.6584 125.64 18.2503 99.5668 14.0725 18.2445 10.2328 9.39573 8.53866 1.38587 6.02827 0.908014 0.533183 1.38152 0.460914 0.455571 0.446557
threshold=-0.040771494728085785 -0.49609306569831263 -0.23754544754756993 2.3392080917673383 -0.026186276213254738 1.2345344489404921 -0.52799800868982449 -0.030208724436973911 -0.11247988043231266 1.4328268760152485 0.43098631432636419 -0.20297829563128134 0.84283289619467971 2.3392080917673383 2.0659332261630508 -1.9477572068486124 2.9597538851288103 1.1213123308968693 0.66898509474467327 -0.016563383413068126 2.6055213699520388 2.4486272314251623 -0.67684360861538095 1.9415173799109198 0.75133214004815818 -0.030448544324208897 0.40914262414179792 0.35918793728625864 0.89603098916955803 -0.16910980024517167 -0.60922379710060259
decision_type=2 2 2 2 2 2 2 2 2 2 2 2 2 2 2 2 2 2 2 2 2 2 2 2 2 2 2 2 2 2 2
left_child=5 2 11 7 21 13 29 8 10 -6 26 -2 -10 18 16 -16 22 -18 -1 -20 -12 28 -9 -24 -25 -14 -3 -28 -5 -7 -8
right_child=1 3 -4 4 9 6 30 14 12 -11 20 -13 25 -15 15 -17 17 -19 19 -21 -22 -23 23 24 -26 -27 27 -29 -30 -31 -32
leaf_value=-0.041004200670331448 0.25826157786373866 -0.041044106273288535 -0.041048803419529982 -0.017519882291986279 0.25848987105208809 -0.041046397297160482 0.25771638128480562 0.045779225922733771 -0.041043722749138326 -0.041138680918243548 0.26315420848441035 -0.041338272619561911 0.23022258912483298 0.25779688457095984 0.23528846445340934 -0.041161797793457612 -0.041048292946942892 0.25787391519988317 0.12231961483111252 -0.041071460339744119 0.14135173985646857 0.056534771632282578 -0.041017188154271633 0.05224116205206495 -0.041157021566835823 0.25785024147960767 -0.041067032355537221 0.007971088619423165 -0.041046385484503844 -0.01730443230134953 0.27244080792361985
leaf_weight=3192.2986389100552 511.69993164390326 138.41988705843687 233.01049885898829 2.1220745891332617 121.56245959550142 49.886188238859177 53.547362729907036 2.8509886711835852 3.576105795800685 6.9792745783925048 4.7246258407831183 4.4922230392694464 3.1051513776183119 2.3203370273113242 4.8485181927680996 26.980219714343548 17.477018266916279 3.3139455020427695 3.0316733494400978 3.9145346805453292 2.715350866317749 2.5461931005120269 1194.5026137307286 2.1349160447716704 9.0564318895339948 70.426705926656723 4.9674140736460677 2.0204262360930443 109.76760781556368 2.1058089807629576 5.6970466524362555
leaf_count=29795 3093 1316 2214 20 739 474 323 24 34 65 29 40 20 14 33 250 166 20 23 37 20 22 11218 19 84 425 47 18 1043 20 36
internal_value=-0.000371894 0.0461748 0.163376 -0.00446116 0.110038 -0.0352636 0.119278 -0.0231188 0.0629928 0.242221 -0.0277537 0.255654 0.242876 -0.0406331 -0.03882 0.000950275 -0.0398497 0.00659798 -0.0408495 0.0302406 0.2187 -0.0384389 -0.0406487 -0.0408531 -0.0233399 0.256684 -0.0403638 -0.0268884 -0.0406002 -0.0400848 0.259132
internal_weight=5796.1 2483.3 749.203 1734.1 242.978 3312.8 111.236 1491.12 229.956 128.542 152.848 516.192 77.108 3201.57 1261.16 31.8287 1229.34 20.791 3199.24 6.94621 7.43998 114.436 1208.54 1205.69 11.1913 73.5319 145.408 6.98784 111.89 51.992 59.2444
internal_count=51681 20959 5347 15612 1889 30722 853 13723 1909 804 1430 3133 479 29869 11814 283 11531 186 29855 60 49 1085 11345 11321 103 445 1381 65 1063 494 359
is_linear=0
shrinkage=0.05


Tree=8
num_leaves=1
num_cat=0
split_feature=
split_gain=
threshold=
decision_type=
left_child=
right_child=
leaf_value=0
leaf_weight=
leaf_count=51681
internal_value=
internal_weight=
internal_count=
is_linear=0
shrinkage=1


Tree=9
num_leaves=32
num_cat=0
split_feature=34 63 13 29 16 21 63 64 53 32 60 8 12 35 0 28 62 62 8 8 15 1 29 64 41 15 9 9 1 28 63
split_gain=12338.6 2626.7 1660.77 2468.15 1629.81 1122.18 591.257 347.367 568.761 284.607 46.9448 250.156 27.2045 21.5526 17.0067 118.203 15.218 13.1045 201.853 5.8122 5.35186 1.62864 6.8145 0.72168 1.89522 0.460773 0.476516 0.380448 0.344185 3.41806 0.332471
threshold=-0.63964640505348447 1.0659319977992578 -0.034479974194899669 -0.20173594723313257 1.3222173293828714 -0.021551551479472946 2.0205994250115138 0.41013427321961488 -0.27830739105124352 -0.64232218465495716 0.8454094482488449 -0.27170023160276358 -0.58547703450128663 -0.6398041973330032 4.4760147892221314 2.8638644107503715 0.77497696286078166 -0.081886479309984619 -0.62630267880822987 -0.30241595600736243 -0.66566658419544245 8.6947743565541487 -0.1925525542646748 0.41023687529147462 3.8098524499613426 -0.66949826461037631 -0.6115892063027456 -0.3043026532981189 5.1568446190911024 2.2382960572839057 1.0859774722671998
decision_type=2 2 2 2 2 2 2 2 2 2 2 2 2 2 2 2 2 2 2 2 2 2 2 2 2 2 2 2 2 2 2
left_child=1 2 5 -4 16 10 -6 14 -9 -5 17 -12 -11 -7 21 -16 -3 20 -19 -20 23 28 -23 25 -25 27 -27 -1 -2 -30 -18
right_child=7 4 3 9 6 13 -8 8 -10 12 11 -13 -14 -15 15 -17 30 18 19 -21 -22 22 -24 24 -26 26 -28 -29 29 -31 -32
leaf_value=0.12410261096701398 -0.04543459300640771 0.033349826797908579 -0.046664576609492664 0.12415041748366012 0.12379147434437486 -0.045368607275906699 -0.045366106164107863 0.12420921506298373 -0.045343720870982644 0.090251184213018476 -0.045471853276851826 0.12435686905260457 -0.045922576388261693 0.071408959320641688 -0.045554211014038358 0.12391230004224717 -0.036507898662286167 -0.048596263797457372 0.071053370961738346 0.12412498962858594 0.074657580625372352 -0.045566575159991657 0.02732225454629722 0.088921809773157126 0.12408861379455866 0.10336229092343935 0.12412202249227847 0.13502081369819127 -0.045434126420033139 0.0035033976252799512 -0.04520246484675567
leaf_weight=1659.4440996795893 6265.8191375136375 6.2407752871513358 480.16946409642696 446.64099419116974 261.09991964697838 109.43583379685879 64.398468628525734 80.927856087684631 127.20295660197735 4.2074744105339041 26.714872062206268 115.13085705041885 28.589287132024765 4.0991209894418708 79.536532536149025 11.818599522113798 11.168952539563177 18.261735916137695 5.2601731419563285 267.90919357538223 5.5183092951774588 16.279826521873478 3.9931952208280554 5.3069501668214825 13.777264803647993 5.4375068098306656 5.6225150823593122 8.0172688663005811 38.769719526171684 3.9297507256269446 706.25974979996681
leaf_count=5904 32606 30 2284 1589 929 573 337 288 667 16 139 410 144 17 411 42 58 79 20 953 21 84 18 20 49 20 20 30 202 18 3703
internal_value=-0.000321961 0.0660845 0.0885356 0.0334622 -0.00259622 0.112025 0.0903244 -0.0429885 0.0205838 0.113711 0.120165 0.0923717 -0.0284529 -0.0411524 -0.0450495 -0.0236304 -0.0443909 0.122141 0.112344 0.123103 0.123818 -0.0453586 -0.0312096 0.123978 0.114309 0.124088 0.113916 0.124155 -0.0454041 -0.0409303 -0.0450671
internal_weight=10887 4258.71 3209.54 959.607 1049.17 2249.94 325.498 6628.28 208.131 479.438 2136.4 141.846 32.7968 113.535 6420.15 91.3551 723.669 1994.56 291.431 273.169 1703.12 6328.79 20.273 1697.61 19.0842 1678.52 11.06 1667.46 6308.52 42.6995 717.429
internal_count=51681 17345 12288 4033 5057 8255 1266 34336 955 1749 7665 549 160 590 33381 453 3791 7116 1052 973 6064 32928 102 6043 69 5974 40 5934 32826 220 3761
is_linear=0
shrinkage=0.05


Tree=10
num_leaves=32
num_cat=0
split_feature=34 63 18 17 11 17 14 33 18 63 21 12 60 16 60 8 21 33 8 12 64 9 17 12 26 32 63 8 8 8 16
split_gain=11482.9 4188.89 1424.84 907.138 2124.98 855.4 845.415 708.141 539.826 538.085 343.127 385.691 323.042 271.75 106.929 248.847 89.7905 145.416 56.1629 41.8967 141.207 38.9979 32.8009 44.5653 29.3203 165.194 26.8782 62.2795 26.3515 19.7769 91.9563
threshold=-0.63380118354610582 1.0252392426664214 1.3252289466198441 -0.017499808850970383 -0.57119463528179171 -0.017515098886568704 2.3787342089747523 -0.060721271273714343 0.40398090310680196 2.0205994250115138 0.054218488733510629 1.9161715551554295 -0.61603696129681407 -1.3160306995494044 0.8702703197283238 -0.27170023160276358 -0.021676960815769589 -0.044406655344599207 -0.078769225402287341 1.6376677374701407 0.40885589860553168 -0.14535228277881163 -0.017820863825136701 1.5085332074648898 -2.4442858456956 -0.64232218465495716 1.0659319977992578 -0.25844417504608785 -0.058613273425282893 2.6953968311728982 -1.1669585876453172
decision_type=2 2 2 2 2 2 2 2 2 2 2 2 2 2 2 2 2 2 2 2 2 2 2 2 2 2 2 2 2 2 2
left_child=1 7 26 4 12 10 16 14 -9 -4 22 -12 13 -2 24 -16 17 -5 -8 -18 -21 -19 29 -24 25 -1 27 -3 -7 -6 -31
right_child=3 2 9 6 5 28 18 8 -10 -11 11 -13 -14 -15 15 -17 19 21 -20 20 -22 -23 23 -25 -26 -27 -28 -29 -30 30 -32
leaf_value=-0.095029992296904425 0.046541946048363127 0.050486812880315216 -0.09479878918657636 0.050236513143345832 0.049661436941549647 -0.09569246576906934 0.05022828126330952 -0.094023100549696814 0.050275382839204179 0.046872104148405737 0.050242387101533961 -0.093688083539263917 0.050279842543750536 -0.095321735687392578 0.050268524111354566 -0.095029826672493822 0.050089145925532708 -0.095609768353172517 -0.095183502287866498 0.046187893371893496 -0.095530307315375623 0.050352518228117149 0.050313892205502468 -0.09710109757303638 -0.094169170332490365 0.050236787141132604 0.049533767654291447 -0.09756499178848424 0.011637943412306902 0.050230055326428706 -0.077422020238247735
leaf_weight=117.85409063100815 36.258925378322601 22.378362357616425 310.45303130149841 58.793791115283966 1793.3689929544926 123.91827005147934 7.0631948709487906 108.06918749213219 161.93358561396599 85.477795958518982 91.11318501830101 95.155074656009674 47.762824803590775 489.27595940232277 43.705176889896393 90.461028456687927 5712.4679328799248 32.736999452114105 110.91686969995499 93.996845692396164 21.619779676198959 5.3197776377201071 11.638442426919939 9.1635459363460523 3268.534076243639 23.467393934726715 957.46383476257324 10.406421840190886 5.9954278767108908 73.66405189037323 17.450004816055298
leaf_count=370 142 88 975 233 7098 390 28 341 641 337 361 301 189 1541 173 284 22638 103 349 370 68 21 46 29 10278 93 3791 33 22 292 56
internal_value=0.000470937 -0.0584819 0.0159555 0.0351595 0.0116043 0.0337528 0.0460535 -0.0855357 -0.00748039 -0.0642134 0.0414855 -0.0232844 -0.074219 -0.0855339 -0.0914823 -0.0476983 0.0486926 0.000944572 -0.086478 0.049486 0.0196872 -0.0752064 0.0478176 -0.0146243 -0.0932051 -0.0709075 0.0480095 0.00349277 -0.0907392 0.0485069 0.0257824
internal_weight=14037.9 5200.2 1386.18 8837.68 2794.76 2221.47 6042.92 3814.02 270.003 395.931 2091.55 186.268 573.298 525.535 3544.02 134.166 5924.94 96.8506 117.98 5828.08 115.617 38.0568 1905.29 20.802 3409.86 141.321 990.249 32.7848 129.914 1884.48 91.1141
internal_count=51681 17404 5224 34277 10467 8595 23810 12180 982 1312 8183 662 1872 1683 11198 457 23433 357 377 23076 438 124 7521 75 10741 463 3912 121 412 7446 348
is_linear=0
shrinkage=0.05


Tree=11
num_leaves=32
num_cat=0
split_feature=13 11 32 12 17 22 13 8 11 27 16 29 13 12 15 25 49 30 12 12 61 10 1 15 60 56 64 8 6 62 63
split_gain=3363.94 4333.64 3535.81 1235.9 1270.37 953.69 729.257 1030.37 643.846 150.288 141.109 97.0017 69.06 63.6286 19.9593 95.094 17.8484 72.6332 13.4892 15.6937 12.2334 8.02921 6.84192 1.40199 5.68216 0.959178 0.54692 1.37961 0.496047 0.489065 0.480349
threshold=-0.040771494728085785 -0.49609306569831263 -0.23754544754756993 2.3392080917673383 -0.026186276213254738 1.2345344489404921 -0.030208724436973911 -0.11247988043231266 -0.57119463528179171 0.43098631432636419 1.4328268760152485 -0.20297829563128134 -0.030208727666717453 2.3392080917673383 2.0659332261630508 2.2536746977236999 2.9597538851288103 1.1213123308968693 0.66898509474467327 0.87177407431784337 2.961476451301237 -0.67684360861538095 1.638497555306397 1.9415173799109198 0.75133214004815818 0.51884811146295307 0.40914262414179792 -0.5572107608983069 5.397672526958206 -0.65654161190307481 2.3610241297873329
decision_type=2 2 2 2 2 2 2 2 2 2 2 2 2 2 2 2 2 2 2 2 2 2 2 2 2 2 2 2 2 2 2
left_child=5 2 11 6 20 13 7 9 29 26 -6 28 -9 18 16 -16 21 -18 -1 -20 30 -8 -11 -23 -25 -14 -3 -28 -2 -7 -5
right_child=1 3 -4 4 10 8 14 12 -10 22 -12 -13 25 -15 15 -17 17 -19 19 -21 -22 23 -24 24 -26 -27 27 -29 -30 -31 -32
leaf_value=-0.040814487095810557 0.19287063643236219 -0.040796512900799796 -0.04079937016683708 -0.040801648363482754 0.19382758964876834 0.1937109841536036 0.041524428369458632 -0.040861888122768912 -0.040800111775955925 0.20476983128962428 -0.040961056379009021 -0.041292335821059761 0.1929456348271591 0.19257599395626129 -0.04100486012761495 0.17995455848032937 -0.040800199435991003 0.19256950766249009 0.10787383015228624 -0.041093105068598229 0.085873489269116143 -0.040806443681579645 0.11512364302701426 0.048771940792205884 -0.040992695928283134 0.16907195098113786 -0.040857906866247642 0.0088346057958584977 0.20821131234510526 0.17628872060875769 -0.016224224016848279
leaf_weight=3049.934310823679 640.08951278030872 130.29129134863615 219.28346705436707 104.0028522759676 152.94987949728966 70.973700314760208 2.9814399406313887 3.3028208985924712 48.569011338055134 5.5830740183591825 6.6788500845432273 4.4483380019664756 88.309841707348824 2.9271051287651053 25.942104004323486 5.9944769889116278 16.450632847845558 4.1816854625940314 3.3035461902618399 3.8036858811974525 1.9555555656552304 1135.2530252858996 3.4397076591849327 2.2112581655383101 8.6959825754165632 4.4177405536174765 4.7196748033165932 1.9838225916028012 5.3133000731468192 4.2704389244318 2.0267790704965583
leaf_count=29795 3066 1316 2214 1049 739 341 24 33 490 28 65 40 423 14 250 33 166 20 24 36 16 11218 21 19 84 23 47 18 27 22 20
internal_value=-0.000538794 0.041888 0.132811 -0.00428782 0.0944043 -0.0349264 -0.0225813 0.0565981 0.101117 -0.0270618 0.184004 0.191393 0.183806 -0.0404311 -0.0385296 0.000469089 -0.0395943 0.00649835 -0.0406542 0.0281489 -0.0380463 -0.0404219 0.170594 -0.040635 -0.0227944 0.191808 -0.0400799 -0.026152 0.192997 0.192722 -0.0403318
internal_weight=5764.29 2580.51 869.135 1711.37 267.614 3183.78 1443.76 242.048 123.813 146.018 159.629 649.851 96.0304 3059.97 1201.71 31.9366 1169.77 20.6323 3057.04 7.10723 107.985 1149.14 9.02278 1146.16 10.9072 92.7276 136.995 6.7035 645.403 75.2441 106.03
internal_count=51681 20959 5347 15612 1889 30722 13723 1909 853 1430 804 3133 479 29869 11814 283 11531 186 29855 60 1085 11345 49 11321 103 446 1381 65 3093 363 1069
is_linear=0
shrinkage=0.05


Tree=12
num_leaves=1
num_cat=0
split_feature=
split_gain=
threshold=
decision_type=
left_child=
right_child=
leaf_value=0
leaf_weight=
leaf_count=51681
internal_value=
internal_weight=
internal_count=
is_linear=0
shrinkage=1


Tree=13
num_leaves=32
num_cat=0
split_feature=34 63 16 13 29 21 63 64 53 32 62 8 8 32 0 28 62 35 15 1 33 64 44 15 11 41 60 63 52 63 24
split_gain=10723.9 2036.05 1400.92 1304.01 2080.02 861.411 462.68 326.404 468.698 220.597 32.6179 366.048 30.8859 28.9695 16.4419 101.158 15.0493 13.6019 3.97146 1.62642 6.83181 0.589503 1.73925 0.38466 0.51245 0.354914 0.656298 0.346191 0.716171 0.311743 0.282397
threshold=-0.63964640505348447 1.0659319977992578 1.3222173293828714 -0.034479974194899669 -0.20173594723313257 -0.021551551479472946 2.0205994250115138 0.41013427321961488 -0.27830739105124352 -0.64232218465495716 -0.081886479309984619 -0.3079697271210684 -0.65835421063810073 -0.59977333601320792 4.4760147892221314 2.8638644107503715 0.77497696286078166 -0.77564420439361037 -0.66566658419544245 8.6947743565541487 -0.028028046794150278 0.41023687529147462 2.0732965087543924 -0.66949826461037631 -0.69282059596341927 4.3134014955436273 -0.66546061055458294 1.0859774722671998 0.2642862929417058 1.9936283993234183 -1.4815741559738755
decision_type=2 2 2 2 2 2 2 2 2 2 2 2 2 2 2 2 2 2 2 2 2 2 2 2 2 2 2 2 2 2 2
left_child=1 3 16 5 -5 10 29 14 -9 -6 18 17 -11 -7 19 -16 -3 -12 21 25 -21 23 -23 -1 -25 -2 -27 28 -18 -4 -29
right_child=7 2 6 4 9 13 -8 8 -10 12 11 -13 -14 -15 15 -17 27 -19 -20 20 -22 22 -24 24 -26 26 -28 30 -30 -31 -32
leaf_value=0.10765554480361583 -0.044804860675156696 0.033767848737622529 0.1076122921974782 -0.046375120167716694 0.10764801547809975 -0.044726842086805663 -0.044727555435909165 0.10763419282723317 -0.044691433825543581 0.11001669563680981 0.045526491623088305 0.10768846345700972 -0.04555916503607263 0.1145108171136088 -0.044974213064855745 0.10741355953943538 -0.044866846082302021 -0.046437003632771631 0.066076310674827179 -0.045003099746063147 0.029297592057264676 0.075645821948623099 0.10811950912541951 0.10888643702701753 0.088130379846601506 -0.018847837607837176 -0.044734228979486743 -0.030272534698669695 -0.017538045448066621 0.098001690901966448 -0.044619854945770837
leaf_weight=1795.527953773737 5963.3889193981886 6.2134347558021537 272.44339382648468 470.49585284292698 480.93236953020096 104.64818753302097 60.870416536927223 87.16905751824379 120.04473772644997 3.5947780609130886 4.4280129075050345 413.6707156598568 28.344408765435219 2.9363533854484549 75.528514221310616 12.725137710571287 6.9517853260040265 43.718723252415657 5.8044252693653098 15.670671820640566 3.8548252880573264 5.715529382228854 14.800358057022093 6.020953893661499 5.8757500946521741 3.754416435956955 7.0391669720411283 3.4475447982549658 3.6590546369552612 8.7076119482517225 663.36119765043259
leaf_count=5934 32767 30 900 2284 1589 580 337 288 667 12 15 1367 148 10 411 42 38 219 21 85 17 20 49 20 20 20 39 19 20 29 3684
internal_value=-0.000400047 0.0593582 -0.00236013 0.0780505 0.0295477 0.0978978 0.0802553 -0.0423234 0.0193877 0.0991975 0.104378 0.0925019 -0.028049 -0.0403807 -0.0444259 -0.0230017 -0.0436926 -0.0379792 0.107369 -0.0447414 -0.0303343 0.107501 0.0990727 0.107596 0.0986351 -0.0447885 -0.03573 -0.0444031 -0.0354428 0.107315 -0.0445457
internal_weight=10701.3 4412.17 1025.65 3386.51 983.367 2403.15 342.021 6289.18 207.214 512.872 2295.56 461.817 31.9392 107.585 6081.96 88.2537 683.633 48.1467 1833.74 5993.71 19.5255 1827.94 20.5159 1807.42 11.8967 5974.18 10.7936 677.42 10.6108 281.151 666.809
internal_count=51681 17345 5057 12288 4033 8255 1266 34336 955 1749 7665 1601 160 590 33381 453 3791 234 6064 32928 102 6043 69 5974 40 32826 59 3761 58 929 3703
is_linear=0
shrinkage=0.05


Tree=14
num_leaves=32
num_cat=0
split_feature=34 63 18 17 11 14 17 33 18 60 21 12 60 16 21 33 60 8 8 12 64 9 17 12 63 8 26 32 11 8 17
split_gain=9980.58 3443.62 1253.53 843.639 1847.96 751.318 751.036 563.786 465.084 446.493 314.357 328.904 269.595 223.777 83.6789 126.944 83.2724 208.463 46.2915 39.726 122.882 32.3929 30.3428 38.1376 25.0606 53.5702 22.6184 136.87 20.5511 18.9489 89.3575
threshold=-0.63380118354610582 1.0252392426664214 1.3252289466198441 -0.017499808850970383 -0.57119463528179171 2.3787342089747523 -0.017515098886568704 -0.060721271273714343 0.40398090310680196 2.0471390749830936 0.054218488733510629 1.9161715551554295 -0.61603696129681407 -1.3160306995494044 -0.021676960815769589 -0.044406655344599207 0.8702703197283238 -0.27170023160276358 -0.078769225402287341 1.6376677374701407 0.40885589860553168 -0.14535228277881163 -0.017820863825136701 1.5085332074648898 1.0659319977992578 -0.25844417504608785 -2.4442858456956 -0.64232218465495716 0.57403639420802621 2.6751182136630756 -0.025355037596200999
decision_type=2 2 2 2 2 2 2 2 2 2 2 2 2 2 2 2 2 2 2 2 2 2 2 2 2 2 2 2 2 2 2
left_child=1 7 24 4 12 14 10 16 -9 -4 22 -12 13 -2 15 -5 26 -18 -7 -16 -21 -17 29 -24 25 -3 27 -1 -8 -6 -31
right_child=3 2 9 5 6 18 28 8 -10 -11 11 -13 -14 -15 19 21 17 -19 -20 20 -22 -23 23 -25 -26 -27 -28 -29 -30 30 -32
leaf_value=-0.085405475359665417 0.04530540074142534 0.049312165173711169 -0.084642442987182875 0.049107158259890885 0.048690670408588786 0.049083591486325281 -0.086425862559445607 -0.084861161595218559 0.049155674152833367 0.047992511117934414 0.04910387834071292 -0.084478836307775529 0.04915320091874209 -0.085950651966282016 0.048941534441641024 -0.08622406147324034 0.049125000069964009 -0.08539757313818927 -0.085841369682935875 0.044932672483877938 -0.086229192987228143 0.049229404457898585 0.049161330862928378 -0.087458054420399847 0.048369804097100705 -0.087487711152294673 -0.08471392315627134 0.049122985473077266 0.0062968355542227282 0.044777461915767654 -0.08540127303089215
leaf_weight=121.50256961584091 34.706785783171654 21.333787307143211 322.87383219599724 56.069782257080078 1681.9838281571865 6.7312947511672965 127.39095818996429 111.42116266489029 154.5078821182251 78.970207005739212 86.862062901258469 98.144126236438751 45.566711112856865 504.43892034888268 5445.1634351015091 33.749751001596451 41.664844676852226 93.263302326202393 114.3441586792469 89.91953207552433 22.28221932053566 5.0778456330299369 11.093879461288454 9.4675685763359052 913.26488554477692 10.768674820661543 3369.561131387949 22.391224279999733 6.2700065672397605 101.276337698102 15.154871687293051
leaf_count=370 142 88 986 233 6982 28 389 341 641 326 361 301 189 1541 22638 103 173 284 349 370 68 21 46 29 3791 33 10278 93 23 416 48
internal_value=0.000565342 -0.0535507 0.0153988 0.0340803 0.0111352 0.0448998 0.0326802 -0.0772815 -0.00699581 -0.0585771 0.0403342 -0.0217606 -0.067631 -0.0775012 0.0475397 0.000983867 -0.0824046 -0.043858 -0.0783401 0.0483347 0.0188852 -0.0685096 0.0466498 -0.0137454 0.0468435 0.00342306 -0.0838849 -0.0644716 -0.0820763 0.0473403 0.0278332
internal_weight=13757.2 5261.52 1347.21 8495.69 2722.36 5773.34 2137.64 3914.31 265.929 401.844 2003.98 185.006 584.712 539.146 5652.26 94.8974 3648.38 134.928 121.075 5557.37 112.202 38.8276 1818.98 20.5614 945.367 32.1025 3513.45 143.894 133.661 1798.42 116.431
internal_count=51681 17404 5224 34277 10467 23810 8595 12180 982 1312 8183 662 1872 1683 23433 357 11198 457 377 23076 438 124 7521 75 3912 121 10741 463 412 7446 464
is_linear=0
shrinkage=0.05


Tree=15
num_leaves=32
num_cat=0
split_feature=13 11 32 12 17 22 13 8 11 27 16 12 35 29 12 15 53 49 30 12 16 61 10 3 15 58 19 6 64 56 36
split_gain=3030.19 3348.53 2467.11 1053.99 922.662 845.246 664.492 764.203 461.409 124.933 95.7607 52.3325 41.0814 39.5874 27.864 19.2997 76.4219 17.378 56.9275 12.9544 13.6816 11.5751 7.62317 4.40949 1.42379 6.47934 0.992324 0.626558 0.560376 1.37955 0.50645
threshold=-0.040771494728085785 -0.49609306569831263 -0.23754544754756993 2.3392080917673383 -0.026186276213254738 1.2345344489404921 -0.030208724436973911 -0.11247988043231266 -0.57119463528179171 0.43098631432636419 1.4328268760152485 2.3392080917673383 -0.45134825436714565 -0.20996008889847065 -1.0000000180025095e-35 2.0659332261630508 -0.083274374784249358 2.9597538851288103 1.1213123308968693 0.66898509474467327 -0.56886314890675393 2.961476451301237 -0.67684360861538095 2.6055213699520388 1.9415173799109198 -0.13058237245623922 -1.1584437867516184 5.397672526958206 0.40914262414179792 0.35918793728625864 0.89603098916955803
decision_type=2 2 2 2 2 2 2 2 2 2 2 2 2 2 2 2 2 2 2 2 2 2 2 2 2 2 2 2 2 2 2
left_child=5 2 13 6 21 11 7 9 -7 28 -6 19 -9 27 -15 17 -17 22 -19 -1 -21 30 -8 -11 -24 -26 -14 -2 -3 -30 -5
right_child=1 3 -4 4 10 8 15 12 -10 23 -12 -13 26 14 -16 16 -18 18 -20 20 -22 -23 24 -25 25 -27 -28 -29 29 -31 -32
leaf_value=-0.040624037401733357 0.15549592235298459 -0.040566635097289888 -0.040566699762350653 -0.01464735364724289 0.15655233042401798 0.15534668374062144 0.038284378749785436 -0.0257504173311731 -0.040566967034028067 0.16437870063204141 -0.040781100292648871 0.15525397772027655 0.13210209091135672 -0.041217264845126861 0.15901531773441008 0.14663160729218347 -0.040864517959767838 -0.040568389414218517 0.15520512741904605 0.09650878827431103 -0.041063981123574789 0.080157316205523868 -0.04060102203383166 0.095539241385828089 -0.040874926535271632 0.059607702818864544 0.15557046389291715 0.17218061718121563 -0.040676922764708294 0.0097181482613140201 -0.040572735835660984
leaf_weight=2903.8717256784439 745.44281820952892 122.54092474281788 206.15778067708015 1.9207338020205487 178.56111104786396 87.935696624219418 3.0852694883942595 3.2544491961598387 45.658061027526855 6.8027081489562971 6.367107741534709 3.4197010993957511 4.7094077020883551 4.3760166987776756 2.8815530091524115 6.9572224095463779 24.833481997251511 15.467093423008921 4.8863351494073859 3.5452559143304825 3.6863928735256186 2.0428424701094618 1076.1208711341023 3.5350796654820442 8.6236745268106443 1.9709857776761044 103.42201578617096 5.6696346402168265 4.4885667338967314 1.9470889121294019 97.862492047250271
leaf_count=29795 3056 1316 2214 20 739 363 24 32 490 29 65 14 23 40 12 34 249 166 20 25 35 16 11218 20 86 17 424 25 47 18 1049
internal_value=-0.000614277 0.0385565 0.112806 -0.00408701 0.0832056 -0.0345909 -0.0220611 0.0516512 0.0883897 -0.0264063 0.149758 -0.040228 0.14928 0.154499 0.0382833 -0.0382437 0.000167987 -0.0393437 0.0064318 -0.0404576 0.0263799 -0.0376616 -0.0401986 0.140839 -0.0404214 -0.0221816 0.154548 0.155622 -0.0398114 -0.02543 -0.0400737
internal_weight=5692.04 2643.93 964.528 1679.4 286.754 3048.12 1392.65 250.7 133.594 139.314 184.928 2914.52 111.386 758.37 7.25757 1141.94 31.7907 1110.15 20.3534 2911.1 7.23165 101.826 1089.8 10.3378 1086.72 10.5947 108.131 751.112 128.977 6.43566 99.7832
internal_count=51681 20959 5347 15612 1889 30722 13723 1909 853 1430 804 29869 479 3133 52 11814 283 11531 186 29855 60 1085 11345 49 11321 103 447 3081 1381 65 1069
is_linear=0
shrinkage=0.05


Tree=16
num_leaves=1
num_cat=0
split_feature=
split_gain=
threshold=
decision_type=
left_child=
right_child=
leaf_value=0
leaf_weight=
leaf_count=51681
internal_value=
internal_weight=
internal_count=
is_linear=0
shrinkage=1


Tree=17
num_leaves=32
num_cat=0
split_feature=34 63 16 13 29 21 63 64 53 32 24 32 62 10 0 28 62 11 64 51 1 15 16 53 41 20 63 11 24 63 9
split_gain=9427.8 1626.84 1220.95 1059.55 1790.32 686.723 375.369 306.317 395.296 177.704 27.0667 25.417 25.2019 304.196 15.8223 88.1485 14.8949 9.21256 2.45592 8.67147 1.62712 6.5263 0.442981 1.92934 0.363465 0.663929 0.361459 0.744448 0.309942 0.274953 0.166604
threshold=-0.63964640505348447 1.0659319977992578 1.3222173293828714 -0.034479974194899669 -0.20173594723313257 -0.021551551479472946 2.0205994250115138 0.41013427321961488 -0.27830739105124352 -0.64232218465495716 0.40819940703654306 -0.59977333601320792 -0.081886479309984619 -0.59757239535375317 4.4760147892221314 2.8638644107503715 0.77497696286078166 -0.20930024839711839 0.41023687529147462 3.7822724809294539 8.6947743565541487 -0.66755967095626489 -0.14965069856907512 -0.4079111983341292 4.3134014955436273 -0.19093488661813712 1.0859774722671998 -0.15186836007556351 -1.9176390827148591 1.9936283993234183 -0.3043026532981189
decision_type=2 2 2 2 2 2 2 2 2 2 2 2 2 2 2 2 2 2 2 2 2 2 2 2 2 2 2 2 2 2 2
left_child=1 3 16 5 -5 12 29 14 -9 -6 -11 -7 18 -14 20 -16 -3 -15 22 -20 24 -22 23 -1 -2 -26 27 -18 -28 -4 -24
right_child=7 2 6 4 9 11 -8 8 -10 10 -12 -13 13 17 15 -17 26 -19 19 -21 21 -23 30 -25 25 -27 28 -29 -30 -31 -32
leaf_value=0.064431652180522256 -0.044240320569259313 0.034143920158265936 0.095710563918690442 -0.046018331727328901 0.095726125869942058 -0.04413431238734998 -0.044162306268381551 0.095662201073014361 -0.044100236603670441 -0.045146106555879861 0.097550886706714801 0.10098593581004139 -0.046344220886491649 0.03150766317206901 -0.044434932854354403 0.095491004831119816 -0.044301468567927618 0.095756335351650526 0.024882869637001287 0.096587502861225943 0.02701678164494439 -0.044862827642938752 0.095739814878854829 0.095723952044581492 -0.044190569927045377 -0.017581217141656839 -0.028206474687396666 -0.015740212479111542 -0.044026979006826394 0.086900824240581653 0.10246013593887451
leaf_weight=6.0572420954704276 5638.1206812262535 6.1889867335557929 285.94734498858452 458.2577361613512 504.81656715273857 98.638448640704155 57.54359470307827 91.513525784015656 113.13953718543053 27.168333783745769 3.7862409353256217 3.1124295294284812 41.72005258500576 5.6521345674991599 71.579989492893219 13.355341136455534 6.5825313180685043 433.92498910427094 5.5631677508354214 17.416342467069626 4.0178312361240414 14.754075229167936 1860.1915063261986 26.369903802871704 6.6640046685934067 3.6162902265787107 3.1112420260906211 3.4917224645614606 625.64448708295822 9.1398087143897992 9.2683929204940778
leaf_count=20 32767 30 900 2284 1589 580 337 288 667 148 12 10 215 20 411 42 38 1366 20 55 20 82 5856 83 39 20 18 20 3685 29 30
internal_value=-0.000451085 0.0541754 -0.00215213 0.0702223 0.0265371 0.0875372 0.0726573 -0.0417146 0.0183965 0.0885956 -0.027692 -0.0396953 0.0929175 0.0826842 -0.0438533 -0.0224328 -0.0430503 0.0949302 0.0954763 0.0792283 -0.0441744 -0.0294781 0.0956726 0.0898787 -0.0442232 -0.0348302 -0.0437981 -0.0344022 -0.0439487 0.0954377 0.0957731
internal_weight=10456.4 4499.59 997.65 3501.94 994.029 2507.91 352.631 5956.76 204.653 535.771 30.9546 101.751 2406.16 481.297 5752.11 84.9353 645.019 439.577 1924.87 22.9795 5667.17 18.7719 1901.89 32.4271 5648.4 10.2803 638.83 10.0743 628.756 295.087 1869.46
internal_count=51681 17345 5057 12288 4033 8255 1266 34336 955 1749 160 590 7665 1601 33381 453 3791 1386 6064 75 32928 102 5989 103 32826 59 3761 58 3703 929 5886
is_linear=0
shrinkage=0.05


Tree=18
num_leaves=32
num_cat=0
split_feature=34 63 18 17 11 14 17 33 16 60 21 14 60 16 21 33 60 8 8 12 64 17 12 62 11 61 62 14 26 8 17
split_gain=8764.31 2891.85 1112.49 784.498 1624.8 673.471 666.433 461.087 405.693 378.562 288.539 284.754 229.409 188.451 77.9781 112.02 66.9132 177.973 39.0025 37.6684 108.366 28.1925 35.7874 23.6968 63.8503 22.1974 19.101 155.968 122.038 18.1821 78.8914
threshold=-0.63380118354610582 1.0252392426664214 1.3252289466198441 -0.017499808850970383 -0.57119463528179171 2.3787342089747523 -0.017515098886568704 -0.060721271273714343 0.31683679213702404 2.0471390749830936 0.054218488733510629 1.8609832399075832 -0.61603696129681407 -1.3160306995494044 -0.021676960815769589 -0.044406655344599207 0.8702703197283238 -0.27170023160276358 -0.078769225402287341 1.6376677374701407 0.40885589860553168 -0.017855273931531985 1.5085332074648898 1.0950569442219866 0.094824211123574254 -0.095645309909916529 -0.081886479309984619 -0.33502387782665027 -2.4442858456956 2.6751182136630756 -0.025355037596200999
decision_type=2 2 2 2 2 2 2 2 2 2 2 2 2 2 2 2 2 2 2 2 2 2 2 2 2 2 2 2 2 2 2
left_child=1 7 23 4 12 14 10 16 -9 -4 21 -12 13 -2 15 -5 26 -18 -7 -16 -21 29 -23 24 -3 -17 -1 -28 -29 -6 -31
right_child=3 2 9 5 6 18 -8 8 -10 -11 11 -13 -14 -15 19 25 17 -19 -20 20 -22 22 -24 -25 -26 -27 27 28 -30 30 -32
leaf_value=-0.078486744645889922 0.044165774638402669 0.048419786903088999 -0.077443827813196683 0.048088663691645335 0.047680962006341671 0.048059093872229466 -0.075464368467866805 -0.079245772745439591 0.047064247660643606 0.046928084396612918 0.047142110165280471 -0.078236573908764429 0.048139227906359834 -0.078836011781961562 0.04791322535235621 -0.078227514141329238 0.048101029510730996 -0.078135270957611691 -0.078728247771661597 0.043779747760424828 -0.079272440601707961 0.048124899743180322 -0.08096330782332993 0.047973105657386488 -0.064697221303275404 0.03213094305434068 0.043715112110685711 0.048051218687765282 -0.078705073253383134 0.043639430880990239 -0.077877238276268246
leaf_weight=2947.5950438976288 33.157318413257599 42.981307223439217 327.29218009114265 53.334855437278748 1598.7736084312201 6.4003467559814444 135.4377064704895 110.58867797255516 149.52550607919693 75.250299170613289 83.899304673075676 98.397139310836792 43.364730298519135 511.76117017865181 5178.7010895162821 33.802385464310646 39.626899868249893 94.514243841171265 116.01045498251915 85.874916300177574 22.600566208362579 11.694665089249613 9.9261463880538923 839.89831176400185 17.576811507344246 5.2663924843072882 29.33333458006382 19.649984508752823 564.2710283100605 96.741066426038742 15.496156141161917
leaf_count=8861 142 185 986 233 6976 28 412 333 649 326 365 297 189 1541 22638 102 173 284 349 370 68 51 30 3668 59 22 97 86 1697 416 48
internal_value=0.000618916 -0.0496977 0.0149049 0.0331188 0.0107055 0.0438678 0.0317218 -0.0709809 -0.00663701 -0.054194 0.0393028 -0.0205328 -0.0625434 -0.0713516 0.0465066 0.000971168 -0.0755105 -0.0408436 -0.0720991 0.0473024 0.0181422 0.0455983 -0.0111397 0.0457951 0.0155879 -0.0633514 -0.0768164 -0.0687879 -0.0744395 0.0463153 0.0268621
internal_weight=13398.7 5258.1 1303 8140.64 2638.65 5501.99 2050.37 3955.1 260.114 402.542 1914.93 182.296 588.283 544.918 5379.58 92.4036 3694.99 134.141 122.411 5287.18 108.475 1732.63 21.6208 900.456 60.5581 39.0688 3560.85 613.254 583.921 1711.01 112.237
internal_count=51681 17404 5224 34277 10467 23810 8595 12180 982 1312 8183 662 1872 1683 23433 357 11198 457 377 23076 438 7521 81 3912 244 124 10741 1880 1783 7440 464
is_linear=0
shrinkage=0.05


Tree=19
num_leaves=32
num_cat=0
split_feature=13 11 32 12 22 17 13 8 11 27 16 12 35 29 12 33 15 26 49 30 61 10 1 15 62 6 13 64 64 63 64
split_gain=2744.16 2674.5 1839.42 912.186 759.284 707.602 608.471 594.314 350.619 107.083 70.1791 45.8414 29.4133 27.9772 22.4423 21.114 18.664 64.3373 16.8448 46.5148 10.6901 7.2288 3.72655 1.45976 17.4617 0.667163 0.638713 0.574731 1.4006 0.527367 0.446412
threshold=-0.040771494728085785 -0.49609306569831263 -0.23754544754756993 2.3392080917673383 1.2345344489404921 -0.026186276213254738 -0.030208724436973911 -0.11247988043231266 -0.57119463528179171 0.43098631432636419 1.4328268760152485 0.66898509474467327 -0.45134825436714565 -0.20996008889847065 -1.0000000180025095e-35 -0.044406655261671903 2.0659332261630508 -1.9477572068486124 2.9597538851288103 1.1213123308968693 2.961476451301237 -0.67684360861538095 1.638497555306397 1.7770463661858102 0.69989001546971863 5.397672526958206 -0.030208727438825262 0.40914262414179792 0.4096611023661631 2.3610241297873329 0.41023687529147462
decision_type=2 2 2 2 2 2 2 2 2 2 2 2 2 2 2 2 2 2 2 2 2 2 2 2 2 2 2 2 2 2 2
left_child=4 2 13 6 11 20 7 9 -6 27 -7 30 -9 25 -15 -13 18 -18 21 -20 29 -8 -11 -23 -25 -2 -14 -3 -29 -5 -1
right_child=1 3 -4 5 8 10 16 12 -10 22 -12 15 26 14 -16 -17 17 -19 19 -21 -22 23 -24 24 -26 -27 -28 28 -30 -31 -32
leaf_value=-0.040506640504701569 0.13123403051767688 -0.040352694257433812 -0.040349946748222967 -0.04035965103945241 0.13105016716608239 0.13225745479269399 0.035178055839094974 -0.024955663256069096 -0.040349304345161527 0.14239829813799507 -0.040600777410923654 -0.040833103240878771 0.11378058747735523 -0.041096658456956731 0.13374580035280512 0.1076696276589342 0.12572488516275318 -0.040692677721171903 -0.040352368075427421 0.13094049579409389 0.072367145344537379 -0.040498386354349457 0.083100053078973168 0.11920930148153185 -0.040681897440477781 0.14757243440752588 0.13127782205516481 0.011151000914264506 -0.040513037246507004 -0.013304500173205065 -0.034751137271961045
leaf_weight=2723.1358547732234 831.35569885373116 115.14460678398609 193.64385875314474 92.010611101984978 98.110503375530243 199.13938342034817 3.1893701180815688 3.1221973001956931 42.876559294760227 7.2271623611450178 6.0501467883586875 3.4830150976777077 5.4632319360971442 4.25871841609478 3.2252857834100714 7.6521587893366796 7.6871800422668484 23.753977730870247 14.529115796089174 5.4498830139636985 2.172187201678752 1005.2445805594325 4.1829895824193954 1.8578147515654588 21.114415965974331 6.295486092567443 115.08103816211224 1.8906857296824444 4.2848040610551834 1.8371252417564381 34.11266228556633
leaf_count=29426 3056 1316 2214 1049 363 739 24 32 490 28 65 35 24 40 12 39 33 250 166 20 16 11083 21 16 222 25 423 18 47 20 369
internal_value=-0.000639875 0.0358708 0.0986485 -0.00388222 -0.0342622 0.0747362 -0.0215646 0.0476961 0.0789247 -0.0257828 0.127161 -0.0400266 0.12656 0.130497 0.034253 0.0612189 -0.0379645 -4.55239e-06 -0.0390996 0.006373 -0.0372919 -0.0399805 0.120659 -0.0402136 -0.0277511 0.131357 0.130485 -0.0395557 -0.0246956 -0.03983 -0.0404354
internal_weight=5588.58 2679.21 1038.78 1640.43 2909.37 301.209 1339.22 256.397 140.987 132.73 205.19 2768.38 123.666 845.135 7.484 11.1352 1082.83 31.4412 1051.39 19.979 96.0199 1031.41 11.4102 1028.22 22.9722 837.651 120.544 121.32 6.17549 93.8477 2757.25
internal_count=51681 20959 5347 15612 30722 1889 13723 1909 853 1430 804 29869 479 3133 52 74 11814 283 11531 186 1085 11345 49 11321 238 3081 447 1381 65 1069 29795
is_linear=0
shrinkage=0.05


Tree=20
num_leaves=1
num_cat=0
split_feature=
split_gain=
threshold=
decision_type=
left_child=
right_child=
leaf_value=0
leaf_weight=
leaf_count=51681
internal_value=
internal_weight=
internal_count=
is_linear=0
shrinkage=1


Tree=21
num_leaves=32
num_cat=0
split_feature=34 63 16 13 29 21 63 64 53 32 24 17 62 10 0 28 62 61 64 1 1 29 16 53 1 29 63 52 24 63 20
split_gain=8360.02 1330.62 1075.12 884.052 1563.45 562.663 312.146 287.062 339.076 146.867 23.9968 23.1969 19.0762 252.344 15.164 77.7786 14.2465 6.8949 2.08542 7.87058 1.63629 7.04547 0.396949 1.73218 0.375445 3.90535 0.363067 0.758424 0.322388 0.255017 0.159067
threshold=-0.63964640505348447 1.0659319977992578 1.3222173293828714 -0.034479974194899669 -0.20173594723313257 -0.021551551479472946 2.0205994250115138 0.41013427321961488 -0.27830739105124352 -0.64232218465495716 0.40819940703654306 0.089549530492187099 -0.081886479309984619 -0.59757239535375317 4.4760147892221314 2.8638644107503715 0.77497696286078166 -0.10005412233052412 0.41023687529147462 2.1862955882051409 8.6947743565541487 -0.1877800275261087 -0.14965069856907512 -0.4079111983341292 5.1568446190911024 2.3299595102985529 1.0859774722671998 0.2642862929417058 -1.9176390827148591 1.9936283993234183 0.7689794071503312
decision_type=2 2 2 2 2 2 2 2 2 2 2 2 2 2 2 2 2 2 2 2 2 2 2 2 2 2 2 2 2 2 2
left_child=1 3 16 5 -5 12 29 14 -9 -6 -11 -7 18 -14 20 -16 -3 -15 22 -20 24 -22 23 -1 -2 -26 27 -18 -28 -4 -30
right_child=7 2 6 4 9 11 -8 8 -10 10 -12 -13 13 17 15 -17 26 -19 19 -21 21 -23 -24 -25 25 -27 28 -29 30 -31 -32
leaf_value=0.057491605092047121 -0.043738755488433957 0.032375921546404479 0.086720946024376522 -0.045622897846465692 0.0866874917350441 -0.043598883847939543 -0.043651446193546994 0.086626326144603083 -0.043565930363412976 -0.04471979787254645 0.088132246621306531 0.093246734776182019 -0.045672360677946389 0.031179697186313766 -0.043933818687748399 0.086487425883905081 -0.043902162371317097 0.086729406234526032 0.020475272510292502 0.087947416876122925 -0.044027215705392045 0.034752363792607023 0.086722452449378623 0.086686228587814523 -0.043761079988193674 0.013628464147612538 -0.02695373099337299 -0.014550917505483761 -0.035539411519900928 0.07836718347292837 -0.043570924420166524
leaf_weight=6.2497033923864356 5296.1596450805664 6.293196201324462 294.51264092326164 444.28973641991615 520.01296004652977 92.912519603967667 54.335554510354996 94.260866224765778 106.53375642001629 25.958098217844967 3.9111886024475089 3.2035368978977194 39.544627949595451 5.6567408442497245 67.722293511033058 13.75301671028137 6.2952507734298688 446.98415890336037 5.6947229951620129 17.931963503360748 14.511152699589731 3.5280853658914557 1925.9515990614891 27.163855344057083 33.320882812142372 3.2538594007492057 2.9637052416801444 3.3839717656373978 6.2307834774255744 9.4282302856445295 582.80659882724285
leaf_count=20 32606 30 900 2284 1589 580 337 288 667 148 12 10 215 20 411 42 38 1366 20 55 87 15 5886 83 205 15 18 20 39 29 3646
internal_value=-0.000485978 0.0500692 -0.00197584 0.0641735 0.0241333 0.0796548 0.0667291 -0.041157 0.0175514 0.0804945 -0.0273237 -0.0390378 0.0842638 0.0754532 -0.0433271 -0.0219187 -0.0424634 0.0860352 0.0864507 0.0716847 -0.043653 -0.0286196 0.0866287 0.0812256 -0.0437039 -0.0386554 -0.0432462 -0.0336406 -0.0434032 0.0864618 -0.043486
internal_weight=10164.8 4531.72 966.25 3565.47 994.172 2571.29 358.276 5633.04 200.795 549.882 29.8693 96.1161 2475.18 492.186 5432.25 81.4753 607.974 452.641 1982.99 23.6267 5350.77 18.0392 1959.37 33.4136 5332.73 36.5747 601.68 9.67922 592.001 303.941 589.037
internal_count=51681 17345 5057 12288 4033 8255 1266 34336 955 1749 160 590 7665 1601 33381 453 3791 1386 6064 75 32928 102 5989 103 32826 220 3761 58 3703 929 3685
is_linear=0
shrinkage=0.05


Tree=22
num_leaves=32
num_cat=0
split_feature=34 63 18 17 11 14 17 33 18 60 21 12 60 16 21 33 60 8 12 64 10 17 12 62 11 61 8 16 54 8 62
split_gain=7756.52 2467.97 993.675 729.447 1439.87 607.583 595.386 385.158 357.81 325.922 265.304 249.317 198.012 161.266 72.6915 99.5487 55.0642 154.038 35.6886 96.3114 33.3975 26.1408 31.4162 22.5017 57.4306 18.9762 17.3924 72.4216 25.4899 16.0593 15.7576
threshold=-0.63380118354610582 1.0252392426664214 1.3252289466198441 -0.017499808850970383 -0.57119463528179171 2.3787342089747523 -0.017515098886568704 -0.060721271273714343 0.40398090310680196 2.0471390749830936 0.054218488733510629 1.9161715551554295 -0.61603696129681407 -1.3160306995494044 -0.021676960815769589 -0.044406655344599207 0.8702703197283238 -0.27170023160276358 1.6376677374701407 0.40885589860553168 -0.071793940047037069 -0.017855273931531985 1.5085332074648898 1.0950569442219866 0.094824211123574254 -0.095645309909916529 2.6751182136630756 -1.1669585876453172 -0.27401075120304508 -0.094241119234110035 -0.081886479309984619
decision_type=2 2 2 2 2 2 2 2 2 2 2 2 2 2 2 2 2 2 2 2 2 2 2 2 2 2 2 2 2 2 2
left_child=1 7 23 4 12 14 10 16 -9 -4 21 -12 13 -2 15 -5 30 -18 -16 -20 -7 26 -23 24 -3 -17 -6 -28 -29 -8 -1
right_child=3 2 9 5 6 20 29 8 -10 -11 11 -13 -14 -15 18 25 17 -19 19 -21 -22 22 -24 -25 -26 -27 27 28 -30 -31 -32
leaf_value=-0.072797944718810265 0.043109390510914919 0.047550198624424486 -0.071800876413189982 0.047171209186790602 0.0467450755597675 0.047139358837254453 -0.073898988486356829 -0.072309155600365313 0.047233102567445458 0.04596549920774648 0.047178957066141412 -0.071882287812545062 0.047229813607287702 -0.073229771747510178 0.046988842878098049 -0.072658234276145373 0.047178551458518694 -0.072459211115008082 0.042711659060729261 -0.073763347524219397 -0.073136132978030691 0.047199281324286434 -0.075067586016462434 0.047048634232939202 -0.06007451147263046 0.031011004871097467 0.047258921457001474 0.049641521533887241 -0.079941286509704113 0.0079162414016265004 -0.063983780371948171
leaf_weight=2950.8199676573277 31.623756572604179 40.960468083620071 327.57898065447807 50.622855082154274 1517.9287707805634 6.0730770826339713 129.59568536281586 113.44824865460396 139.64961455762386 71.589891359210014 78.475166797637939 99.997787475585938 41.185932800173759 512.92512109875679 4915.2642382830381 33.881355136632919 37.605745553970337 94.550266027450562 81.88441900908947 22.659453332424164 116.28655982017517 11.098532661795618 9.976506441831587 797.23276208341122 17.774134159088135 5.0754003673791876 84.957371950149536 4.7983291149139431 18.149423688650131 6.2889553010463706 612.28646568953991
leaf_count=8861 142 185 986 233 6976 28 389 341 641 326 361 301 189 1541 22638 102 173 284 370 68 349 51 30 3668 59 22 389 20 55 23 1880
internal_value=0.000647459 -0.0466062 0.0144676 0.0322572 0.010313 0.0429405 0.0308576 -0.0660209 -0.00635036 -0.0506798 0.038374 -0.0195307 -0.0584785 -0.0664736 0.0455773 0.00093297 -0.0701078 -0.0384156 0.046374 0.0174662 -0.0671665 0.0446491 -0.0106794 0.0448482 0.014981 -0.0591519 0.0453663 0.0259701 -0.0528458 -0.0701125 -0.0712833
internal_weight=12982.2 5203.5 1255.14 7778.75 2547 5231.75 1961.27 3948.36 253.098 399.169 1825.38 178.473 585.735 544.549 5109.39 89.5796 3695.26 132.156 5019.81 104.544 122.36 1646.91 21.075 855.967 58.7346 38.9568 1625.83 107.905 22.9478 135.885 3563.11
internal_count=51681 17404 5224 34277 10467 23810 8595 12180 982 1312 8183 662 1872 1683 23433 357 11198 457 23076 438 377 7521 81 3912 244 124 7440 464 75 412 10741
is_linear=0
shrinkage=0.05


Tree=23
num_leaves=32
num_cat=0
split_feature=13 11 32 14 33 16 22 11 53 21 12 13 16 8 29 12 16 27 12 61 13 17 13 34 11 6 10 36 64 61 63
split_gain=2494.03 2186.49 1433.21 809.627 869 703.424 688.228 277.211 138.033 49.4767 42.3645 36.4194 57.6053 27.0466 19.3767 20.1511 17.0939 12.1758 48.5941 6.26039 5.46032 4.42503 1.14937 0.905629 0.719218 0.701386 0.479207 0.496693 0.465682 9.6284 0.369368
threshold=-0.040771494728085785 -0.49609306569831263 -0.23754544754756993 0.91815500835177877 -0.044406655303303406 -1.2114041792882269 1.2345344489404921 -0.57119463528179171 -0.33641864244593828 0.049455351342249217 0.66898509474467327 -0.030208724436973911 -1.016048936800797 2.2331615512442458 -0.21001364710087497 -1.0000000180025095e-35 -0.56886314890675393 -2.3942211992360094 2.0161122724366254 2.961476451301237 -0.030208724612394565 0.02984418008670741 0.54500371608102638 -0.63380118354610582 -0.21462076727637994 5.397672526958206 -0.087567293706238572 1.0098616711013211 0.41023687529147462 0.17215474856597116 2.3610241297873329
decision_type=2 2 2 2 2 2 2 2 2 2 2 2 2 2 2 2 2 2 2 2 2 2 2 2 2 2 2 2 2 2 2
left_child=6 2 14 11 9 21 10 -8 -7 17 28 12 20 -11 25 -16 -12 18 -5 24 -3 -6 23 -10 -19 -2 27 -25 -1 -30 -26
right_child=1 3 -4 4 5 8 7 -9 22 13 16 -13 -14 -15 15 -17 -18 19 -20 -21 -22 -23 -24 26 30 -27 -28 -29 29 -31 -32
leaf_value=-0.040324026832517922 0.11418033507125046 0.049374106175646706 -0.040148093941127019 -0.040139954829268853 -0.040228441853304348 -0.040144898871038809 0.11400202839541212 -0.040146590495699304 0.093355918457069587 0.12967724062158167 0.094264803726982357 -0.040326191071294641 -0.04033283960714195 -0.040738243665478138 -0.040953259130939078 0.11580822388675037 -0.04061433926016178 -0.0024549510174404795 0.12245714092427146 0.025641827078758735 0.11694126929006127 0.041543357404652724 0.13277225899520742 0.11666690663393571 -0.040285502226585529 0.13031552790950335 0.11492714198653842 0.13500263638101145 0.087699470952470451 -0.040376130769141608 -0.021606253302462047
leaf_weight=2579.3051908537745 897.827074021101 4.5471226572990409 181.73558612912893 20.31448328495026 101.49507474899292 14.851902544498442 106.05151905119419 40.229286856949329 4.7490150704979888 7.1383550912141782 8.241026468574999 790.17433073371649 20.14686357229948 3.4552505537867546 4.1175419613718987 4.0827109366655332 3.2855824157595626 1.2750215977430333 5.9383937716484061 3.691718950867652 8.7323298603296262 1.6818487793207157 9.3887434303760511 9.295867055654524 263.14131122082472 6.7860780656337729 317.07363456487656 6.1283755898475638 1.5405585542321194 30.919637270271778 2.6734411716461173
leaf_count=29426 3054 29 2214 248 1225 181 363 490 19 29 39 9199 237 36 40 14 35 13 21 33 31 13 35 32 3094 25 1083 23 14 355 31
internal_value=-0.000634728 0.0336514 0.0880786 -0.00367765 0.0330995 0.0762546 -0.0339413 0.071609 0.109121 -0.0320852 -0.039827 -0.0381637 0.0129568 0.0740939 0.113608 0.0370946 0.0558184 -0.0358721 -0.00336054 -0.0390241 0.0938051 -0.0388955 0.115517 0.115036 -0.0399179 0.114301 0.115346 0.123952 -0.0402491 -0.0342977 -0.0400976
internal_weight=5460.01 2690.44 1094.55 1595.89 772.292 464.664 2769.57 146.281 361.488 307.628 2623.29 823.601 33.4263 10.5936 912.813 8.20025 11.5266 297.034 26.2529 270.781 13.2795 103.177 346.636 337.247 267.09 904.613 332.498 15.4242 2611.77 32.4602 265.815
internal_count=51681 20959 5347 15612 6116 2611 30722 853 1373 3505 29869 9496 297 65 3133 54 74 3440 269 3171 60 1238 1192 1157 3138 3079 1138 55 29795 369 3125
is_linear=0
shrinkage=0.05


Tree=24
num_leaves=1
num_cat=0
split_feature=
split_gain=
threshold=
decision_type=
left_child=
right_child=
leaf_value=0
leaf_weight=
leaf_count=51681
internal_value=
internal_weight=
internal_count=
is_linear=0
shrinkage=1


Tree=25
num_leaves=32
num_cat=0
split_feature=34 63 16 13 29 21 64 53 63 32 24 17 62 10 0 28 62 8 15 28 1 33 41 25 64 25 63 52 24 63 14
split_gain=7461.37 1107.31 954.071 752.212 1376.83 470.506 268.684 294.575 264.464 130.333 21.6841 20.7737 15.1642 220.25 14.4816 69.2542 13.6502 6.22606 1.92068 5.26929 1.63722 6.56263 0.386008 0.815838 0.383612 1.41022 0.365714 0.760083 0.335999 0.245199 0.17014
threshold=-0.63964640505348447 1.0659319977992578 1.3222173293828714 -0.034479974194899669 -0.20173594723313257 -0.021551551479472946 0.41013427321961488 -0.27830739105124352 2.0205994250115138 -0.64232218465495716 0.40819940703654306 0.089549530492187099 -0.081886479309984619 -0.59757239535375317 4.4760147892221314 2.8638644107503715 0.77497696286078166 -0.30522884115663035 -0.66949826461037631 -0.35919414542078393 8.6947743565541487 -0.02802804677626039 4.3134014955436273 1.0000000180025095e-35 0.41023687529147462 -0.1337572638022114 1.0859774722671998 0.2642862929417058 -1.9176390827148591 1.9936283993234183 0.91815500835177877
decision_type=2 2 2 2 2 2 2 2 2 2 2 2 2 2 2 2 2 2 2 2 2 2 2 2 2 2 2 2 2 2 2
left_child=1 3 16 5 -5 12 14 -8 29 -6 -11 -7 18 -14 20 -16 -3 -15 24 -20 22 -22 30 -24 -1 -26 27 -18 -28 -4 -2
right_child=6 2 8 4 9 11 7 -9 -10 10 -12 -13 13 17 15 -17 26 -19 19 -21 21 -23 23 -25 25 -27 28 -29 -30 -31 -32
leaf_value=0.079638783514399833 -0.043098147348005461 0.030780766570203288 0.079705215586523728 -0.045200857298311053 0.07970789235881745 -0.043108648166112873 0.079579170574676728 -0.043081332857335689 -0.043190214903248786 -0.044588276916640329 0.080811795781435741 0.0849737076752064 -0.045557670937962785 0.027642484137789681 -0.043468205449719036 0.079463679105798213 -0.043517285152081003 0.079924105311052721 0.025713904895297613 0.081577567742778148 -0.043556742139755911 0.032437002812035591 -0.043271957415816603 -0.011530134507589605 0.053035346792173435 0.080877804759288685 -0.025699581378810801 -0.013644829352624527 -0.042993214771260793 0.071585457908701508 -0.043822201158671581
leaf_weight=1971.0572818219662 4000.9233147054911 6.3843149691820136 298.94588151574135 428.79418414831161 527.7847393155098 87.368839204311371 95.670222669839859 100.22361817955971 51.258899241685867 25.788098201155666 3.9793113470077506 3.2847609221935263 38.283973857760429 5.7668993175029746 63.97561876475811 13.955825507640837 5.9949275106191617 453.57622629404068 6.1961166560649898 13.243405014276503 13.717749834060671 3.5829738378524771 6.2724380493164045 2.9889621734619141 6.3167480081319836 16.241319358348846 2.8230113089084616 3.3024445623159409 553.97081592679024 9.5961055755615217 1017.7249279022217
leaf_count=5934 26463 30 900 2284 1589 580 288 667 337 148 12 10 215 20 411 42 38 1366 21 40 87 15 41 18 20 49 18 20 3685 29 6304
internal_value=-0.000507585 0.0467263 -0.00182174 0.0593417 0.0221611 0.0734394 -0.0406455 0.0168233 0.0619804 0.0739668 -0.0278248 -0.0384677 0.0774801 0.0696645 -0.0428429 -0.0214538 -0.0419214 0.0792677 0.0794121 0.0637717 -0.0431733 -0.0278185 -0.0432262 -0.0330278 0.0795646 0.0730813 -0.0427413 -0.0329065 -0.0429055 0.0794527 -0.043245
internal_weight=9838.99 4519.96 932.276 3587.68 986.346 2601.34 5319.04 195.894 359.801 557.552 29.7674 90.6536 2510.68 497.627 5123.14 77.9314 572.476 459.343 2013.05 19.4395 5045.21 17.3007 5027.91 9.2614 1993.62 22.5581 566.091 9.29737 556.794 308.542 5018.65
internal_count=51681 17345 5057 12288 4033 8255 34336 955 1266 1749 160 590 7665 1601 33381 453 3791 1386 6064 61 32928 102 32826 59 6003 69 3761 58 3703 929 32767
is_linear=0
shrinkage=0.05


Tree=26
num_leaves=32
num_cat=0
split_feature=34 63 18 17 11 14 16 16 33 18 60 60 16 21 33 60 8 12 64 10 62 11 61 62 14 26 34 43 60 58 17
split_gain=6904.73 2129.91 891.965 677.759 1283.81 550.723 547.772 641.484 326.506 317.501 283.925 172.749 139.662 67.8467 89.066 45.9533 134.699 33.759 85.8998 28.9477 21.372 52.0048 16.5149 14.2186 128.642 102.005 8.82593 5.16936 4.89137 4.58122 3.77926
threshold=-0.63380118354610582 1.0252392426664214 1.3252289466198441 -0.017499808850970383 -0.57119463528179171 2.3787342089747523 -1.016048936800797 -1.1802334429052599 -0.060721271273714343 0.40398090310680196 2.0471390749830936 -0.61603696129681407 -1.3160306995494044 -0.021676960815769589 -0.044406655344599207 0.8702703197283238 -0.27170023160276358 1.6376677374701407 0.40885589860553168 -0.071793940047037069 1.0950569442219866 0.094824211123574254 -0.10005412233052412 -0.081886479309984619 -0.86457871520914364 -2.4442858456956 -0.059894016800686484 5.5740114445936628 2.0216264254351088 -0.47499186653232012 -0.018349478146428046
decision_type=2 2 2 2 2 2 2 2 2 2 2 2 2 2 2 2 2 2 2 2 2 2 2 2 2 2 2 2 2 2 2
left_child=1 8 20 4 11 13 7 -6 15 -10 28 12 -2 14 -5 23 -17 27 26 -7 21 -3 -16 -1 -25 -26 -19 -15 -4 -23 -8
right_child=3 2 10 5 6 19 30 -9 9 -11 -12 -13 -14 17 22 16 -18 18 -20 -21 -22 29 -24 24 25 -27 -28 -29 -30 -31 -32
leaf_value=-0.068225621820106927 0.042124292835691975 0.046776569727588813 -0.068201120704540291 0.046340768124386533 0.04646348495601979 0.046311746389834416 0.046291468138547683 -0.070025371180147553 -0.067749320516524228 0.046414810007519965 0.045087738983568111 0.046412204287483272 -0.068686836648200175 0.046204762662146764 -0.069043902531484722 0.046344788557343058 -0.067903726211187218 -0.016817367902353626 -0.069189462446257968 -0.068617371034327884 0.046214116251111603 -0.021183327880032795 0.024798664420829699 0.056237137901481576 0.047329693995956781 -0.068279126624769135 0.046540143759000736 -0.0093120389143212124 -0.027118066406353239 -0.074566696949942765 0.029275372520686363
leaf_weight=2924.5235822498798 30.116596594452858 38.990656435489655 317.19577497243881 47.948876351118088 219.50615146756172 5.7518526911735526 1361.8567645698786 256.03367377817631 112.79075035452843 132.37899979948997 68.015841528773308 39.045374348759651 509.18973615765572 4652.2447270303965 33.078461974859238 35.611213877797127 93.632783651351929 5.95108638703823 22.505746096372604 115.46151515841484 755.2975649535656 6.1132017225027111 5.4625456333160392 22.973695382475853 19.746263146400452 565.59465017914772 71.994513347744942 4.1968161016702643 7.4144611656665793 11.731180697679518 33.431791767477989
leaf_count=8861 142 185 962 233 1061 28 6608 775 341 641 326 189 1541 22620 100 173 284 25 68 349 3668 23 24 78 90 1712 345 18 24 36 151
internal_value=0.000659317 -0.0440466 0.0140754 0.0314853 0.00996147 0.0421036 0.0300889 -0.0162549 -0.0619678 -0.00610659 -0.0477999 -0.055146 -0.0624988 0.0447381 0.000850799 -0.0657076 -0.0364243 0.0455361 0.0168578 -0.0631637 0.0439891 0.0144206 -0.0557433 -0.0667789 -0.0598239 -0.0643791 0.0417028 0.0461547 -0.0672627 -0.0562784 0.0458838
internal_weight=12525.8 5112.01 1204.76 7413.78 2449.18 4964.6 1870.83 475.54 3907.25 245.17 392.626 578.352 539.306 4843.38 86.4899 3662.08 129.244 4756.89 100.451 121.213 812.133 56.835 38.541 3532.84 608.315 585.341 77.9456 4656.44 324.61 17.8444 1395.29
internal_count=51681 17404 5224 34277 10467 23810 8595 1836 12180 982 1312 1872 1683 23433 357 11198 457 23076 438 377 3912 244 124 10741 1880 1802 370 22638 986 59 6759
is_linear=0
shrinkage=0.05


Tree=27
num_leaves=32
num_cat=0
split_feature=13 11 32 14 33 22 16 11 53 21 12 13 16 8 29 12 20 27 12 61 13 17 11 13 34 6 64 57 8 63 10
split_gain=2273.36 1823.04 1153.87 742.4 746.198 628.031 573.004 225.658 109.294 44.8138 39.3392 35.061 49.7947 21.9887 15.0129 17.0635 14.6124 11.8274 41.7885 6.12523 4.30466 4.16309 3.51414 1.03188 0.817625 0.72681 0.48327 10.1669 0.391536 0.386048 0.369212
threshold=-0.040771494728085785 -0.49609306569831263 -0.23754544754756993 0.91815500835177877 -0.044406655303303406 1.2345344489404921 -1.2114041792882269 -0.57119463528179171 -0.33641864244593828 0.049455351342249217 0.66898509474467327 -0.030208724436973911 -1.016048936800797 2.2331615512442458 -0.21001364710087497 -1.0000000180025095e-35 -0.64699136607568486 -2.3942211992360094 2.0161122724366254 2.961476451301237 -0.030208724612394565 0.02984418008670741 0.21110055000765485 0.54500371608102638 -0.63380118354610582 5.397672526958206 0.41023687529147462 0.15912184860653558 -0.57074581483894493 2.3610241297873329 -0.087567293706238572
decision_type=2 2 2 2 2 2 2 2 2 2 2 2 2 2 2 2 2 2 2 2 2 2 2 2 2 2 2 2 2 2 2
left_child=5 2 14 11 9 10 21 -7 -8 17 26 12 20 -11 25 -16 -12 18 -5 28 -3 -6 -18 24 -10 -2 -1 -28 -19 -30 -26
right_child=1 3 -4 4 6 7 8 -9 23 13 16 -13 -14 -15 15 -17 22 19 -20 -21 -22 -23 -24 -25 30 -27 27 -29 29 -31 -32
leaf_value=-0.040147683918119494 0.10164329450718866 0.045361348609239051 -0.039960263210076723 -0.039951388819557558 -0.040046950138618392 0.10144711352882563 -0.039957603408417544 -0.039957972972206018 0.082286031112587227 0.11379192212288983 -0.040734816625035253 -0.040150376060762501 -0.040141594790930407 -0.04057472168726773 -0.040797143450844675 0.10290070904111799 0.11919237487490023 -0.019273530636300752 0.10842399884025807 0.024908445979798539 0.10426779879872616 0.038446975224140784 0.055316897139447756 0.11859908391345693 0.10990161176701729 0.11763684671799708 0.095772955512970354 -0.040207295671187443 -0.040107238714635382 -0.020553195990564717 0.10221914790309779
leaf_weight=2438.6382314786315 947.70364598929882 4.6694664210081092 170.42862346768379 19.041918009519581 95.241610936820507 111.98604436218739 13.929593600332735 37.715767100453377 5.0353872328996649 7.6817991957068426 3.1543566212058058 745.56944554299116 18.921378403902054 3.2970657199621201 3.9614758267998695 4.3173831403255445 4.0185550451278669 2.3205048814415923 6.3205261528491965 3.7207668349146834 9.2352344989776594 1.7197105884551991 4.6388035640120506 9.9713379442691785 16.405085816979408 7.1571253240108481 1.4420231059193636 29.398825496435165 246.73035904020071 2.5501997619867316 334.98896342515945
leaf_count=29426 3054 29 2214 248 1225 363 181 490 19 29 33 9199 237 36 40 14 14 28 21 33 31 13 27 35 55 25 12 357 3079 31 1083
internal_value=-0.000614531 0.0317893 0.0799616 -0.00350106 0.0313443 -0.0336333 0.0698473 0.0658216 0.0975088 -0.0316641 -0.0396336 -0.0379237 0.012649 0.067434 0.101182 0.0341406 0.0513975 -0.0355402 -0.00297504 -0.0387751 0.0844859 -0.0386548 0.0849665 0.102735 0.102291 0.101763 -0.040069 -0.0338493 -0.0397169 -0.0399072 0.102578
internal_weight=5311.91 2680.92 1133.57 1547.35 768.955 2630.99 477.292 149.702 380.33 291.663 2481.29 778.396 32.8261 10.9789 963.14 8.27886 11.8117 280.684 25.3624 255.322 13.9047 96.9613 8.65736 366.401 356.429 954.861 2469.48 30.8408 251.601 249.281 351.394
internal_count=51681 20959 5347 15612 6116 30722 2611 853 1373 3505 29869 9496 297 65 3133 54 74 3440 269 3171 60 1238 41 1192 1157 3079 29795 369 3138 3110 1138
is_linear=0
shrinkage=0.05


Tree=28
num_leaves=1
num_cat=0
split_feature=
split_gain=
threshold=
decision_type=
left_child=
right_child=
leaf_value=0
leaf_weight=
leaf_count=51681
internal_value=
internal_weight=
internal_count=
is_linear=0
shrinkage=1


Tree=29
num_leaves=32
num_cat=0
split_feature=34 63 16 13 29 21 64 53 63 32 24 62 17 0 28 62 10 9 15 9 1 28 1 29 18 63 53 64 60 11 63
split_gain=6694.98 934.909 851.755 647.936 1225.62 399.607 251.197 258.449 227.166 111.426 19.5128 19.0885 18.7347 13.7751 62.0966 12.3234 188.175 5.80173 1.74535 4.96685 1.63479 6.8811 0.400848 3.74715 0.377925 0.380785 0.768581 0.372803 1.32456 0.336388 0.196378
threshold=-0.63964640505348447 1.0659319977992578 1.3222173293828714 -0.034479974194899669 -0.20173594723313257 -0.021551551479472946 0.41013427321961488 -0.27830739105124352 2.0205994250115138 -0.64232218465495716 0.40819940703654306 0.75323123895758448 0.089549530492187099 4.4760147892221314 2.8638644107503715 -0.081886479309984619 -0.59757239535375317 -0.19221437288940699 -0.66949826461037631 -0.61849582317856899 8.6947743565541487 -0.02540746123231467 5.1568446190911024 2.3299595102985529 0.66034717161905798 1.0859774722671998 0.11638008509143229 0.41023687529147462 -0.66553407387705221 1.6109905560507205 1.9936283993234183
decision_type=2 2 2 2 2 2 2 2 2 2 2 2 2 2 2 2 2 2 2 2 2 2 2 2 2 2 2 2 2 2 2
left_child=1 3 11 5 -5 15 13 -8 30 -6 -11 -3 -7 20 -15 18 -17 -18 27 -20 22 -22 -2 -24 -13 26 -26 -1 -29 -27 -4
right_child=6 2 8 4 9 12 7 -9 -10 10 -12 24 -14 14 -16 16 17 -19 19 -21 21 -23 23 -25 25 29 -28 28 -30 -31 -32
leaf_value=0.073998193799286988 -0.042823800914608301 0.06029075023741122 0.074064069072409242 -0.044776345630166199 0.074061818803874316 -0.04265851307789327 0.07394164674643218 -0.042640275087544595 -0.042763760049528157 -0.044133744452962871 0.074972138549706122 -0.023104403088213942 0.078428104700368664 -0.043038948646014485 0.073845393288330369 -0.044899579561944458 0.024160275978153511 0.074238234802367492 0.022048291103795352 0.076139221001434387 -0.043135915306404482 0.037446975550235934 -0.042846778701999419 0.013995278193423256 -0.043283923270704634 -0.042646950598651694 -0.012782721540418924 0.048255480979272652 0.075109246105554528 -0.025371029877861301 0.066820589571531017
leaf_weight=1977.5633578896523 4701.8944413214922 4.5742176324129096 299.94176018238068 412.57510405778885 529.54113322496414 82.05786982178688 95.966450244188309 94.207064226269722 48.285315290093422 24.504895642399791 3.9999994039535514 2.5555226504802695 3.3238313496112815 60.391952306032181 13.996577024459837 36.125261545181274 5.8581058382987967 455.25285094976425 6.2269051223993328 13.327124238014219 13.281665071845056 3.3092513382434836 29.593221440911293 3.2142698466777793 5.6450871080160123 519.59802168607712 3.2569924145936966 6.3890852928161648 16.325700849294662 2.8330880701541892 9.658323407173155
leaf_count=5934 32606 20 900 2284 1589 580 288 667 337 148 12 18 10 411 42 215 20 1366 21 40 89 13 205 15 37 3676 21 20 49 19 29
internal_value=-0.000522235 0.0439785 -0.001679 0.0554322 0.0205678 0.0684353 -0.0401749 0.01619 0.0581064 0.0688781 -0.02742 -0.0414149 -0.0379447 -0.0423962 -0.0210466 0.0720439 0.0649926 0.073602 0.0737797 0.0589142 -0.0427305 -0.0270627 -0.0427854 -0.0372778 -0.0422863 -0.0423785 -0.0321245 0.073925 0.067556 -0.0425533 0.0738381
internal_weight=9485.27 4469.42 896.348 3573.07 970.621 2602.45 5015.85 190.174 357.885 558.046 28.5049 538.463 85.3817 4825.68 74.3885 2517.07 497.236 461.111 2019.83 19.554 4751.29 16.5909 4734.7 32.8075 533.889 531.333 8.90208 2000.28 22.7148 522.431 309.6
internal_count=51681 17345 5057 12288 4033 8255 34336 955 1266 1749 160 3791 590 33381 453 7665 1601 1386 6064 61 32928 102 32826 220 3771 3753 58 6003 69 3695 929
is_linear=0
shrinkage=0.05


Tree=30
num_leaves=32
num_cat=0
split_feature=34 63 18 17 33 20 14 16 16 33 16 60 21 33 60 8 12 12 64 62 21 63 10 16 61 62 14 26 35 9 43
split_gain=6178.66 1857.55 803.94 629.583 1159.81 692.936 501.079 316.126 305.036 280.727 283.79 249.603 63.325 80.0891 38.9897 118.716 31.9895 31.8977 76.9914 28.5978 25.3244 19.6597 33.0583 16.806 14.496 12.2974 113.568 89.1138 11.4114 10.0157 4.95921
threshold=-0.63380118354610582 1.0252392426664214 1.3252289466198441 -0.017499808850970383 -0.044406655344599207 -0.60436107123295579 2.3787342089747523 -0.050912140380604612 1.8302343990847867 -0.060721271273714343 0.31683679213702404 2.0471390749830936 -0.021676960815769589 -0.044406655344599207 0.8702703197283238 -0.27170023160276358 2.3392080917673383 1.6376677374701407 0.40885589860553168 0.67418759065819267 0.010051326277794027 1.0659319977992578 -0.27401642285731248 -1.3160306995494044 -0.095645309909916529 -0.081886479309984619 -0.86457871520914364 -2.4442858456956 -0.066541616846665666 1.8521346161538648 5.5740114445936628
decision_type=2 2 2 2 2 2 2 2 2 2 2 2 2 2 2 2 2 2 2 2 2 2 2 2 2 2 2 2 2 2 2
left_child=1 9 19 4 -2 -6 12 23 16 14 -11 -4 13 -5 25 -16 -9 30 28 -3 -8 22 -21 -7 -15 -1 -27 -28 -19 -25 -14
right_child=3 2 11 6 5 7 20 8 -10 10 -12 -13 17 24 15 -17 -18 18 -20 21 -22 -23 -24 29 -26 26 27 -29 -30 -31 -32
leaf_value=-0.06447389131858787 0.045595233318719931 -0.11164269131319336 -0.063541656024935209 0.045592280635745483 0.045682526136885504 0.022264589684725642 0.045561890878707816 0.045596447205804157 -0.065439826574413662 -0.065280378010581605 0.044604025766119576 0.04428241737377038 0.045452664941342008 -0.064584571388964521 0.045588194356680774 -0.064165779874155379 -0.078094599585079777 -0.03623764538067744 -0.065418773611719855 0.045682192389963065 -0.064895924751545944 0.045374039381569239 -0.06598040626986422 -0.065635993687937669 0.029029841993595009 0.054461193980056236 0.046479309775486713 -0.064476922772194939 0.04578055815823636 -0.0021104210803263575 -0.0090451174483428785
leaf_weight=2875.071662992239 1147.1186879426241 2.969827562570571 319.04568776488304 45.341575354337692 270.74928306043148 5.5623450130224219 5.437027394771575 163.15792056918144 109.87493896484375 108.73064431548119 127.84423550963402 64.529123291373253 4399.7385997027159 33.151337116956711 33.654327794909477 91.967781662940979 5.4002278149127951 4.5163835138082495 22.17917463183403 17.21347664296627 113.76681178808212 738.18593394756317 10.77894911170006 639.46085068583488 4.7246073633432379 22.167950689792633 18.704060822725296 556.59767711162567 69.530788615345955 6.265557959675788 4.1783686578273764
leaf_count=8861 5879 10 986 233 1385 25 28 838 337 333 649 326 22620 102 173 284 17 18 68 88 349 3781 33 1963 22 78 90 1712 352 23 18
internal_value=0.000661176 -0.0419287 0.0137265 0.0307904 0.00964313 -0.0247111 0.0413474 -0.0452109 -0.000619553 -0.0586587 -0.00589923 -0.0454023 0.0439795 0.000760844 -0.0621275 -0.0347625 0.0416337 0.0447787 0.0163007 0.0432141 -0.0598578 0.0438144 0.00268465 -0.0642741 -0.0529072 -0.0631175 -0.0565904 -0.0608695 0.040778 -0.0650196 0.045401
internal_weight=12037.6 4987.46 1152.72 7050.15 2347.59 1200.47 4702.56 929.722 278.433 3834.74 236.575 383.575 4583.36 83.2175 3598.16 125.622 168.558 4500.14 96.2263 769.148 119.204 766.178 27.9924 651.289 37.8759 3472.54 597.47 575.302 74.0472 645.726 4403.92
internal_count=51681 17404 5224 34277 10467 4588 23810 3203 1192 12180 982 1312 23433 357 11198 457 855 23076 438 3912 377 3902 121 2011 124 10741 1880 1802 370 1986 22638
is_linear=0
shrinkage=0.05


Tree=31
num_leaves=32
num_cat=0
split_feature=13 11 32 14 33 22 16 11 53 21 12 13 16 10 29 12 27 12 22 61 17 15 14 13 6 11 64 25 63 10 24
split_gain=2076.46 1540.41 950.461 681.563 647.573 575.65 476.172 187.584 88.88 40.7119 36.6353 33.5761 43.2021 15.3205 11.9684 14.6915 11.4092 36.314 8.53144 5.99511 3.92677 3.3364 0.848549 0.716655 0.691453 0.574528 0.500949 9.92017 0.403346 0.29669 0.418227
threshold=-0.040771494728085785 -0.49609306569831263 -0.23754544754756993 0.91815500835177877 -0.044406655303303406 1.2345344489404921 -1.2114041792882269 -0.57119463528179171 -0.33641864244593828 0.049455351342249217 0.66898509474467327 -0.030208724436973911 -1.016048936800797 2.1154444340289023 -0.21001364710087497 -1.0000000180025095e-35 -2.3942211992360094 2.0161122724366254 -0.62938617908765215 2.961476451301237 0.02984418008670741 0.85051995123596702 0.95034654010183217 0.54500371608102638 5.397672526958206 -0.20930024839711839 0.41023687529147462 -0.43632681666928452 2.3610241297873329 -0.087567293706238572 0.38696958383161362
decision_type=2 2 2 2 2 2 2 2 2 2 2 2 2 2 2 2 2 2 2 2 2 2 2 2 2 2 2 2 2 2 2
left_child=5 2 14 11 9 10 20 -7 -8 16 26 12 21 -11 24 -16 17 -5 -12 25 -6 -3 -10 29 -2 -18 -1 -28 -27 30 -24
right_child=1 3 -4 4 6 7 8 -9 22 13 18 -13 -14 -15 15 -17 19 -19 -20 -21 -22 -23 23 -25 -26 28 27 -29 -30 -31 -32
leaf_value=-0.039976271524790552 0.0919839815977017 0.042595319924871249 -0.039784757246810555 -0.039776251368983301 -0.039873746108822328 0.091796694411992272 -0.039783148953158522 -0.039781759825160218 0.074659973279891823 0.099848362607026758 -0.016673338863373185 -0.039981201382698679 -0.039958194752953258 -0.02774509607522125 -0.040635288955066629 0.093026860434626518 -0.0092641971795953872 0.097419909179422504 0.075348515133875638 0.024228371537194333 0.035754453250466341 0.093618708999211431 0.093579088688245896 0.10608825257093923 0.10727131573117006 -0.039935578262384107 0.094049526525416705 -0.040042013569613621 -0.019473127592698161 0.092520040182205332 0.11001079809321344
leaf_weight=2301.4952648133039 982.90142852067947 4.8089439868926993 159.66450980305672 17.837480209767822 89.233310893177986 116.18076242506504 13.053890004754065 35.322756104171276 6.2688016742467871 7.9049641117453557 3.5989233553409568 702.06564602255821 17.742887429893017 3.3495127558708191 3.7969460338354111 4.4833262562751752 1.5583681166172016 6.6106131672859183 8.3916681259870511 3.7460385560989371 1.7500200271606434 9.599393278360365 11.193077474832537 10.498281359672545 7.4528084695339194 232.7347387522459 1.4512456580996538 27.819279089570045 2.4334362223744384 346.6017896682024 5.9209041744470587
leaf_count=29426 3054 30 2214 248 1225 363 181 490 22 29 35 9199 237 36 40 14 18 21 39 33 13 30 35 35 25 3089 11 358 31 1080 20
internal_value=-0.000583866 0.0302068 0.0734881 -0.0033287 0.0298395 -0.0333368 0.0646689 0.0611194 0.0885022 -0.0312649 -0.0394451 -0.0376931 0.0122716 0.0618745 0.0915985 0.0317356 -0.0352217 -0.00267926 0.0477286 -0.0385302 -0.0384191 0.0765891 0.0929035 0.0932091 0.092099 -0.0395233 -0.0398936 -0.0333937 -0.0397238 0.0928374 0.0992639
internal_weight=5147.47 2653.21 1158.3 1494.91 760.695 2494.26 484.52 151.504 393.537 276.175 2342.76 734.217 32.1512 11.2545 998.635 8.28027 264.921 24.4481 11.9906 240.473 90.9833 14.4083 380.483 374.214 990.354 236.727 2330.77 29.2705 235.168 363.716 17.114
internal_count=51681 20959 5347 15612 6116 30722 2611 853 1373 3505 29869 9496 297 65 3133 54 3440 269 74 3171 1238 60 1192 1170 3079 3138 29795 369 3120 1135 55
is_linear=0
shrinkage=0.05


Tree=32
num_leaves=1
num_cat=0
split_feature=
split_gain=
threshold=
decision_type=
left_child=
right_child=
leaf_value=0
leaf_weight=
leaf_count=51681
internal_value=
internal_weight=
internal_count=
is_linear=0
shrinkage=1


Tree=33
num_leaves=32
num_cat=0
split_feature=34 63 16 13 29 21 64 53 63 32 62 8 18 0 28 62 8 8 15 62 1 28 1 29 63 52 18 24 64 54 63
split_gain=6032.91 798.719 764.191 564.251 1097.73 343.56 234.551 228.463 197.554 96.4992 22.3168 17.6496 17.4048 13.0661 55.9481 10.2065 162.738 6.28402 1.62718 4.58805 1.62691 7.07998 0.410594 3.58019 0.396875 0.803536 0.40044 0.371344 0.368367 1.28719 0.20457
threshold=-0.63964640505348447 1.0659319977992578 1.3222173293828714 -0.034479974194899669 -0.20173594723313257 -0.021551551479472946 0.41013427321961488 -0.27830739105124352 2.0205994250115138 -0.64232218465495716 0.72727748722760943 -0.65835421063810073 0.40398090310680196 4.4760147892221314 2.8638644107503715 -0.081886479309984619 -0.62630267880822987 -0.3079697271210684 -0.66949826461037631 -0.6616894065460025 8.6947743565541487 -0.011479705069845714 5.1568446190911024 2.3299595102985529 1.0859774722671998 0.2642862929417058 0.66034717161905798 -1.9176390827148591 0.41023687529147462 -2.2028024471613867 1.9936283993234183
decision_type=2 2 2 2 2 2 2 2 2 2 2 2 2 2 2 2 2 2 2 2 2 2 2 2 2 2 2 2 2 2 2
left_child=1 3 10 5 -5 15 13 -8 30 -6 -3 -11 -7 20 -15 18 -17 -18 28 -20 22 -22 -2 -24 25 -12 -26 -28 -1 -30 -4
right_child=6 2 8 4 9 12 7 -9 -10 11 24 -13 -14 14 -16 16 17 -19 19 -21 21 -23 23 -25 26 -27 27 -29 29 -31 -32
leaf_value=0.069394997830868818 -0.042419379787216251 0.079817972721144825 0.069489762205107233 -0.044351034518909344 0.069455455927768847 0.074615492707513706 0.069325534263615221 -0.042238146880318302 -0.042385856256857264 0.070216866030534633 -0.042736242232305321 -0.043711237869749758 -0.042252567726429387 -0.042638045347373373 0.069242167658341638 -0.044902914990272734 0.017833884113209131 0.0696074811599766 0.071396857746788778 0.019376242808899866 -0.042856107550046436 0.041128941563707597 -0.042438704551753859 0.013137862028019261 -0.021820618454351341 -0.010640130089684448 -0.023154682494828036 -0.042246123616693443 0.070470030656416799 0.04402173772434511 0.062094412877815287
leaf_weight=1965.2212667763233 4422.4591739922762 3.7966398149728766 298.10093495249748 395.71982134878635 526.24438583850861 3.3231807649135581 95.341101467609406 88.472378686070442 45.479462549090385 3.9814388751983669 5.3847140073776227 23.257926374673843 77.056947663426399 56.929979346692562 13.903192877769468 33.698873281478882 5.9376948177814475 452.89434486627579 13.296935230493547 6.2218242138624182 12.770999841392038 3.1230414211750022 27.821448720991615 3.2346713244915 2.4351166784763327 3.0571451783180237 2.5603978335857382 488.79015375673771 16.25493544340134 6.4161492884159079 9.6539655625820142
leaf_count=5934 32606 15 900 2284 1589 10 288 667 337 12 38 148 580 411 42 208 26 1367 40 21 90 12 205 15 18 20 18 3682 49 20 29
internal_value=-0.000530564 0.0416772 -0.00155342 0.0522016 0.0192402 0.0643269 -0.0397428 0.0156281 0.0548835 0.0647056 -0.0409497 -0.0270589 -0.0374209 -0.0419845 -0.0206781 0.0675983 0.0611485 0.0689375 0.0691808 0.0548147 -0.0423222 -0.0263538 -0.0423791 -0.0366501 -0.0418626 -0.0311129 -0.0420464 -0.0421466 0.0693219 0.0629849 0.0692578
internal_weight=9112.84 4388.78 859.259 3529.53 949.204 2580.32 4724.06 183.813 353.234 553.484 506.024 27.2394 80.3801 4540.24 70.8332 2499.94 492.531 458.832 2007.41 19.5188 4469.41 15.894 4453.52 31.0561 502.228 8.44186 493.786 491.351 1987.89 22.6711 307.755
internal_count=51681 17345 5057 12288 4033 8255 34336 955 1266 1749 3791 160 590 33381 453 7665 1601 1393 6064 61 32928 102 32826 220 3776 58 3718 3700 6003 69 929
is_linear=0
shrinkage=0.05


Tree=34
num_leaves=32
num_cat=0
split_feature=34 63 18 17 33 20 14 16 16 33 18 60 21 33 60 8 12 64 12 62 21 63 8 16 61 62 14 26 35 9 43
split_gain=5551.55 1632.86 726.924 584.633 1059.32 621.536 457.152 275.606 273.561 243.92 254.542 220.974 59.0077 72.2046 33.4719 105.355 30.0899 69.2746 28.982 25.7595 22.3262 18.2867 29.639 14.8119 12.7796 10.7575 100.906 78.4647 10.7246 8.89503 4.76236
threshold=-0.63380118354610582 1.0252392426664214 1.3252289466198441 -0.017499808850970383 -0.044406655344599207 -0.60436107123295579 2.3787342089747523 -0.050912140380604612 1.8302343990847867 -0.060721271273714343 0.40398090310680196 2.0471390749830936 -0.021676960815769589 -0.044406655344599207 0.8702703197283238 -0.27170023160276358 1.6376677374701407 0.40885589860553168 2.3392080917673383 0.67418759065819267 0.010051326277794027 1.0659319977992578 -0.25844417504608785 -1.3160306995494044 -0.10005412233052412 -0.081886479309984619 -0.86457871520914364 -2.4442858456956 -0.066541616846665666 1.8521346161538648 5.5740114445936628
decision_type=2 2 2 2 2 2 2 2 2 2 2 2 2 2 2 2 2 2 2 2 2 2 2 2 2 2 2 2 2 2 2
left_child=1 9 19 4 -2 -6 12 23 18 14 -11 -4 13 -5 25 -16 30 28 -9 -3 -8 22 -21 -7 -15 -1 -27 -28 -18 -25 -14
right_child=3 2 11 6 5 7 20 8 -10 10 -12 -13 16 24 15 -17 17 -19 -20 21 -22 -23 -24 29 -26 26 27 -29 -30 -31 -32
leaf_value=-0.061344827015918868 0.044913950497163492 -0.10122444416133725 -0.060421212895433299 0.044915464198779377 0.044997873972420104 0.021284590018495319 0.044886801210553572 0.044918458713548381 -0.062269506471648528 -0.060836696977838195 0.045021646854803907 0.043540262726289483 0.044770932667084457 -0.062196367099999719 0.044908089766785363 -0.061053585593087725 -0.034091814899857929 -0.062251328368694063 -0.072394805243968324 0.04498641617857476 -0.061769465615984266 0.044684323924244866 -0.062639682235971966 -0.062446119265124167 0.023031507215059543 0.052888083781404943 0.045712480084390168 -0.061302479247607081 0.045085670333724119 -0.0021702489888388056 -0.0087831322897728957
leaf_weight=2807.6349256932735 1083.2460416853428 3.10378873348236 311.5593473315239 42.81014296412468 255.66269069910049 5.402708411216735 5.1327151060104361 154.04172901809216 107.56876862049103 109.06268799304962 118.47462548315525 61.144768267869949 4154.4130013138056 31.906916469335556 31.762554317712784 89.726974844932556 4.5747061073780051 21.714523315429688 5.4510095417499533 16.239489957690243 111.38270834088326 697.38731479644775 10.554300159215925 626.06045064330101 5.1016797125339499 21.319984868168831 17.685486912727356 544.09415689110756 65.674311816692352 6.1811171472072592 4.1553854495286933
leaf_count=8861 5879 10 986 233 1385 25 28 838 337 341 641 326 22620 100 173 284 18 68 17 88 349 3781 33 1963 24 78 90 1712 352 23 18
internal_value=0.000655665 -0.0401364 0.0134138 0.0301638 0.00935549 -0.0238396 0.0406623 -0.0432926 -0.000649895 -0.0558873 -0.00571814 -0.0433656 0.043292 0.000699617 -0.0591374 -0.0333507 0.0440918 0.0158025 0.040909 0.0425109 -0.0570711 0.0431269 0.00259159 -0.0611524 -0.0504476 -0.0600614 -0.0538815 -0.0579335 0.0399295 -0.0618568 0.0447174
internal_weight=11530.2 4839.75 1099.99 6690.48 2243.61 1160.37 4446.87 904.706 267.062 3739.76 227.537 372.704 4330.35 79.8187 3512.22 121.49 4250.53 91.9635 159.493 727.285 116.515 724.181 26.7938 637.644 37.0086 3390.73 583.1 561.78 70.249 632.242 4158.57
internal_count=51681 17404 5224 34277 10467 4588 23810 3203 1192 12180 982 1312 23433 357 11198 457 23076 438 855 3912 377 3902 121 2011 124 10741 1880 1802 370 1986 22638
is_linear=0
shrinkage=0.05


Tree=35
num_leaves=32
num_cat=0
split_feature=13 11 32 14 33 22 16 11 53 21 12 13 16 10 27 12 29 12 22 61 17 15 22 6 8 13 64 12 63 41 65
split_gain=1899.82 1316.66 797.344 626.334 566.626 529.476 402.136 158.593 73.735 37.1418 34.1947 32.1498 37.9967 12.8081 10.9626 31.9076 9.76319 12.8049 7.08256 5.87136 3.71282 2.73714 0.824075 0.667546 0.635978 0.574033 0.518542 9.4194 0.421465 0.275684 0.205155
threshold=-0.040771494728085785 -0.49609306569831263 -0.23754544754756993 0.91815500835177877 -0.044406655303303406 1.2345344489404921 -1.2114041792882269 -0.57119463528179171 -0.33641864244593828 0.049455351342249217 0.66898509474467327 -0.030208724436973911 -1.016048936800797 2.1154444340289023 -2.3942211992360094 2.0161122724366254 -0.21001364710087497 -1.0000000180025095e-35 -0.62938617908765215 2.961476451301237 0.02984418008670741 0.85051995123596702 -0.68328969948257912 5.397672526958206 -0.5739466030250121 0.54500371608102638 0.41023687529147462 -0.99649930773763629 2.3610241297873329 3.6469683072499639 -0.664757118482736
